tree
version=v4
num_class=1
num_tree_per_iteration=1
label_index=0
max_feature_idx=7
objective=regression
feature_names=date_block_num shop_id item_id item_price day month year revenue
feature_infos=[0:24] [0:59] [1:21802] [-0.51482930999752141:16.272394279888118] [1:31] [1:12] [2013:2015] [-0.20470114587137711:134.57453802264476]
tree_sizes=2770 2773 2762 2769 2853 2836 2847 2776 2795 2790 2596 2878 2739 2749 2636 2898 2636 2858 2530 2909 2760 2682 2586 2929 2647 2596 2661 2426 2930 2624 2515 2685 2765 2147 2509 2223 2321 2588 2705 2230 2239 2715 2714 1718 2628 2524 1955 1911 2643 2275 2358 2498 2367 2217 2415 2301 2453 1971 2461 2280 2716 2535 2611 2901 2776 2501 2698 2122 2805 2528 2291 2762 2307 2187 2851 2286 2510 2721 2251 2607 2635 2418 2646 2323 2216 2435 2109 2218 2267 2765 2409 2211 2226 2727 2222 2672 2766 2717 2733 2040 3031 2895 2836 2667 2641 2246 2463 2380 2797 2125 2870 2764 2186 2274 2771 1761 2550 2710 2274 2906 2592 2869 2364 2041 2536 2365 2111 2573 2725 2753 2718 2782 1842 2391 2432 1958 2351 2803 2931 2802 1837 2651 2504 1952 2812 2029 1958 2024 2953 2128 2365 2946 2734 2375 2117 2795 2871 2432 2406 2719 2798 2476 2353 2799 2577 2902 2903 2790 2090 2639 2410 2903 2117 2097 2462 2593 2895 1961 2913 1937 2350 2777 2356 2176 1872 2217 1850 2372 2094 2599 2936 2715 2930 2897 2128 2365 2732 2476 2715 2732

Tree=0
num_leaves=31
num_cat=0
split_feature=7 3 3 7 7 3 7 3 7 2 7 7 3 4 7 7 3 4 7 3 0 3 3 2 7 0 3 1 4 2
split_gain=789500 786254 559108 1.14382e+06 595401 313899 262939 353046 250534 200042 190168 120757 97891 88185.1 39359.5 38383.5 24589.9 24438.9 22075.4 173986 21428.1 17631.8 11658 7964.85 4447.32 1785.15 2153.12 1011.29 852.145 576.589
threshold=6.4729712211150856 2.1422789683452859 -0.51141396652460169 -0.18863129788813932 -0.13254858334007402 0.38366816959975092 0.4105595328216442 0.081254252520034917 -0.19944328149567989 7817.5000000000009 1.6397095027430344 -0.17324362725911349 1.5108745796864365 22.500000000000004 -0.20278471979897786 -0.19443332177705452 0.98466855871126591 18.500000000000004 -0.028811912584385448 0.063839859952346562 10.500000000000002 0.17917449506028893 9.9019103952301908 3654.5000000000005 -0.10641837757126883 13.500000000000002 7.296408535634975 30.500000000000004 20.500000000000004 4295.5000000000009
decision_type=2 2 2 2 2 2 2 2 2 2 2 2 2 2 2 2 2 2 2 2 2 2 2 2 2 2 2 2 2 2
left_child=2 5 3 8 11 9 18 10 14 21 -8 -5 -9 -11 -1 -10 17 -7 24 -20 22 -2 29 -18 -4 28 -27 -24 -22 -3
right_child=1 20 6 4 -6 16 7 12 15 13 -12 -13 -14 -15 -16 -17 23 -19 19 -21 25 -23 27 -25 -26 26 -28 -29 -30 -31
leaf_value=1.2656937608338386 7.8202800585772039 2.2574076040151176 1.2251409504536042 3.6144956715272567 21.027169503100392 5.736852077599611 1.9107178374469558 1.4565710758512653 1.9764123265328257 18.961537981784588 3.4873571954979918 5.7468913784900586 1.2334547364690553 9.9985981471898615 1.5452367436248045 2.5670021747678549 3.3244909174802366 4.0772647470084999 1.3993558411149991 1.2272040090364247 1.7765604323215727 5.5393887410389002 3.5424076345624984 4.1466698990189155 1.2367059379082745 2.234528811801447 1.413399517147216 4.3745815336442364 1.5286332929271793 1.5769530665078584
leaf_weight=12221 94 20 1313559 1226 21 180 5338 43166 3396 23 893 339 36118 21 8568 1628 192 175 68819 399550 301 53 40 305 445213 33 988 23 257 33
leaf_count=12221 94 20 1313559 1226 21 180 5338 43166 3396 23 893 339 36118 21 8568 1628 192 175 68819 399550 301 53 40 305 445213 33 988 23 257 33
internal_value=1.24712 2.94421 1.24513 1.69421 4.30084 5.10448 1.23981 1.41189 1.53406 8.76848 2.13667 4.0764 1.35493 14.6838 1.3809 2.16779 4.28309 4.91875 1.23321 1.2525 1.61491 6.99792 2.92672 3.82905 1.22807 1.51854 1.43994 3.84622 1.66237 1.83373
internal_weight=0 2738 2.34006e+06 27399 1586 1043 2.31266e+06 85515 25813 191 6231 1565 79284 44 20789 5024 852 355 2.22714e+06 468369 1695 147 116 497 1.75877e+06 1579 1021 63 558 53
internal_count=2342793 2738 2340055 27399 1586 1043 2312656 85515 25813 191 6231 1565 79284 44 20789 5024 852 355 2227141 468369 1695 147 116 497 1758772 1579 1021 63 558 53
is_linear=0
shrinkage=1


Tree=1
num_leaves=30
num_cat=0
split_feature=7 3 3 7 7 7 7 3 7 3 2 3 7 7 7 3 3 3 7 4 7 7 3 7 0 1 7 3 3
split_gain=646180 640848 454724 931194 500555 197385 162846 231296 159632 152933 204770 142160 131543 110988 63853.7 50924.3 37570.5 30542.5 26286.3 21566.1 21192.2 17881.1 140929 7121.29 17356.7 6835.21 3602.91 695.932 411.923
threshold=3.8462367695906781 0.98466855871126591 -0.51141396652460169 -0.19112353087678699 -0.13254858334007402 6.4729712211150856 0.4105595328216442 0.38366816959975092 -0.20023534566596962 0.21399919840580109 7817.5000000000009 2.1422789683452859 -0.17685143120458433 1.4820878537608391 6.4729712211150856 -0.11288100990024723 1.5108745796864365 0.26615554533971114 -0.19607722854558049 18.500000000000004 -0.20278471979897786 -0.028811912584385448 0.063839859952346562 6.4729712211150856 10.500000000000002 13.500000000000002 -0.10815986383247199 5.2703573228859755 1.4008889424229192
decision_type=2 2 2 2 2 2 2 2 2 2 2 2 2 2 2 2 2 2 2 2 2 2 2 2 2 2 2 2 2
left_child=2 5 3 8 12 15 21 13 20 10 -7 14 -5 -8 28 -2 -9 -17 -10 -11 -1 26 -23 27 -25 -16 -4 -13 -3
right_child=1 11 6 4 -6 9 7 16 18 19 -12 23 -14 -15 25 17 -18 -19 -20 -21 -22 22 -24 24 -26 -27 -28 -29 -30
leaf_value=0.01671677035821478 6.9112642288208015 0.85990756404770574 -0.019797236831934115 1.8362433429256151 17.802045077369325 5.5842547713733115 0.40516823270573482 0.13109763688450793 0.53698954070618021 4.2051590438072495 15.518660148620606 0.34707706478280081 3.7172631033131331 1.2713465546303133 3.0275537848472598 2.6707624727044226 -0.01584380096689687 1.2434292153053477 0.97986070994238494 2.7334443826325905 0.23328494274528111 0.13701264115628048 -0.017924005095658262 1.5116385562923449 0.24428235443428092 2.1283304147058404 -0.0094193349929694095 0.027181493639206935 0.60542937332475688
leaf_weight=12221 20 611 1309454 1561 21 122 11176 35233 3896 208 25 71 488 1705 108 242 34379 394 2043 191 7169 68819 399550 116 1579 389 449318 1613 71
leaf_count=12221 20 611 1309454 1561 21 122 11176 35233 3896 208 25 71 488 1705 108 242 34379 394 2043 191 7169 68819 399550 116 1579 389 449318 1613 71
internal_value=0 1.05787 -0.00260728 0.402384 2.44166 3.11187 -0.00741167 0.130557 0.235725 4.5165 7.27378 0.516201 2.28424 0.51982 1.46165 1.94278 0.0585283 1.78653 0.689336 3.50065 0.0967878 -0.012522 0.00484135 0.186315 0.331016 2.32374 -0.017146 0.0406688 0.833415
internal_weight=0 5760 2.33703e+06 27399 2070 1202 2.30963e+06 82493 25329 546 147 4558 2049 12881 1179 656 69612 636 5939 399 19390 2.22714e+06 468369 3379 1695 497 1.75877e+06 1684 682
internal_count=2342793 5760 2337033 27399 2070 1202 2309634 82493 25329 546 147 4558 2049 12881 1179 656 69612 636 5939 399 19390 2227141 468369 3379 1695 497 1758772 1684 682
is_linear=0
shrinkage=0.1


Tree=2
num_leaves=30
num_cat=0
split_feature=7 3 3 7 7 7 7 7 3 3 2 3 7 3 7 3 3 7 7 3 4 7 3 2 0 0 3 7 3
split_gain=523406 519087 368327 761250 384111 176562 159882 131905 198976 124664 139983 115461 80310.9 75631.7 53028.2 49278.3 41248.7 28690.9 28027.6 24791.5 16086.7 14623.2 139074 6559.33 5593.05 12878.5 3398.58 2696.79 550.178
threshold=3.8462367695906781 0.98466855871126591 -0.51141396652460169 -0.18718079191591055 -0.13254858334007402 -0.19944328149567989 6.4729712211150856 0.4105595328216442 0.063478065092927111 0.38366816959975092 7817.5000000000009 2.3791822422931506 -0.16784774504242231 -0.31290436305832997 6.4729712211150856 1.5108745796864365 -0.11288100990024723 -0.19443332177705452 -0.201817715817492 0.3241874407905932 18.500000000000004 -0.072898503194854442 -0.080878083815439081 3654.5000000000005 10.500000000000002 9.5000000000000018 -0.50012596691071431 6.4729712211150856 1.4008889424229192
decision_type=2 2 2 2 2 2 2 2 2 2 2 2 2 2 2 2 2 2 2 2 2 2 2 2 2 2 2 2 2
left_child=2 6 3 5 12 18 16 21 13 10 -8 14 -5 -9 28 -10 -2 -7 -1 -18 -11 26 -23 -16 25 -13 -4 -26 -3
right_child=1 11 7 4 -6 17 9 8 15 20 -12 24 -14 -15 23 -17 19 -19 -20 -21 -22 22 -24 -25 27 -27 -28 -29 -30
leaf_value=0.037710948031011687 6.2201379394531253 0.77391677519303492 0.079220534410935906 2.1087687349319459 16.021840268089658 0.59094068742893613 4.6437505112213344 2.3611235707998275 0.14695261895378858 3.6202433236440026 11.073140497641131 0.15494565285280743 4.3476063935653029 0.60330433517315196 1.6338364541231087 -0.014259421534702145 2.3811238965190262 1.0876011280773588 0.30021410598201381 1.1037661652750783 2.2737862396240236 0.12730981009105741 -0.015003116512749848 2.3704364833119627 0.022369100623633422 1.5584000763199901 -0.016982724271374313 0.21117174358524438 0.51160675598227456
leaf_weight=15241 20 611 3681 1240 21 3396 147 256 42279 180 44 226 184 5579 199 34379 251 1769 5548 385 175 77191 621958 308 1461 92 1524311 1569 92
leaf_count=15241 20 611 3681 1240 21 3396 147 256 42279 180 44 226 184 5579 199 34379 251 1769 5548 385 175 77191 621958 308 1461 92 1524311 1569 92
internal_value=0 0.95208 -0.00234656 0.362146 2.59605 0.237772 2.80068 -0.0066705 0.117502 4.06485 6.12487 0.464581 2.39806 0.680425 1.30178 0.0746535 1.7485 0.761046 0.107766 1.60788 2.9565 -0.0112698 0.000709238 2.08132 0.162007 0.560976 -0.016751 0.120135 0.739589
internal_weight=0 5760 2.33703e+06 27399 1445 25954 1202 2.30963e+06 82493 546 191 4558 1424 5835 1210 76658 656 5165 20789 636 355 2.22714e+06 699149 507 3348 318 1.52799e+06 3030 703
internal_count=2342793 5760 2337033 27399 1445 25954 1202 2309634 82493 546 191 4558 1424 5835 1210 76658 656 5165 20789 636 355 2227141 699149 507 3348 318 1527992 3030 703
is_linear=0
shrinkage=0.1


Tree=3
num_leaves=30
num_cat=0
split_feature=7 3 3 7 7 7 7 3 2 7 3 3 7 7 3 7 7 3 3 4 7 7 3 1 7 0 3 3 3
split_gain=423958 420460 298345 619768 306133 153485 129504 107742 142867 106843 163602 93523.6 60610.4 56415 54112.5 42952.9 38133.3 33411.4 20273.9 14848.7 13326.4 12666 105849 5621.94 4730.83 12428 2711.32 498.397 452.816
threshold=3.8462367695906781 0.98466855871126591 -0.51141396652460169 -0.18637817861127731 -0.13254858334007402 -0.19759806208009914 6.4729712211150856 0.21399919840580109 7817.5000000000009 0.4105595328216442 -0.0012108557712730498 2.3791822422931506 -0.16520342870032281 1.3458897384411987 0.4687124272990571 6.4729712211150856 -0.201817715817492 -0.11288100990024723 0.38366816959975092 18.500000000000004 -0.19256085043108648 -0.028811912584385448 -0.22473785017668188 13.500000000000002 6.4729712211150856 10.500000000000002 -0.22473785017668188 12.954668848757498 1.7424232897148937
decision_type=2 2 2 2 2 2 2 2 2 2 2 2 2 2 2 2 2 2 2 2 2 2 2 2 2 2 2 2 2
left_child=2 6 3 5 12 16 17 8 -8 21 13 15 -5 -11 -12 28 -1 -2 -19 -9 -7 26 -23 -17 27 -26 -4 -13 -3
right_child=1 11 9 4 -6 20 7 19 -10 10 14 24 -14 -15 -16 23 -18 18 -20 -21 -22 22 -24 -25 25 -27 -28 -29 -30
leaf_value=0.033939851936131089 5.5981240844726567 0.69059030433154889 -0.011796716358653607 2.0037807869641444 14.419656553722564 0.69688520461162073 4.5614542210688356 3.3902944916142865 12.859480195522309 0.59613807069148084 0.29094021072454268 0.080732040932710233 4.1603206037664089 1.6931661912250175 0.043802640279499268 2.4985437024916926 0.31074549680149766 2.0352640655392507 0.90512186436494668 2.169107928700472 1.1095860053341622 0.24901092112218126 -0.0047709194788197427 1.6958688855473001 1.2627086543060582 0.19005457065937778 -0.020923453493975695 -0.028757689812358819 0.40757252016375145
leaf_weight=15241 20 641 1327539 1149 21 2252 122 208 25 3047 10171 834 147 554 68721 112 7390 305 331 191 1199 17056 451313 395 116 1569 431233 829 62
leaf_count=15241 20 641 1327539 1149 21 2252 122 208 25 3047 10171 834 147 554 68721 112 7390 305 331 191 1199 17056 451313 395 116 1569 431233 829 62
internal_value=0 0.856872 -0.0021119 0.325931 2.44246 0.219058 2.52061 3.65836 5.97268 -0.00600345 0.105752 0.418123 2.24839 0.764912 0.0756644 1.17161 0.124329 1.57365 1.44709 2.80572 0.840272 -0.0101428 0.00447073 1.87319 0.145807 0.263899 -0.0140345 0.0261518 0.66563
internal_weight=0 5760 2.33703e+06 27399 1317 26082 1202 546 147 2.30963e+06 82493 4558 1296 3601 78892 1210 22631 656 636 399 3451 2.22714e+06 468369 507 3348 1685 1.75877e+06 1663 703
internal_count=2342793 5760 2337033 27399 1317 26082 1202 546 147 2309634 82493 4558 1296 3601 78892 1210 22631 656 636 399 3451 2227141 468369 507 3348 1685 1758772 1663 703
is_linear=0
shrinkage=0.1


Tree=4
num_leaves=31
num_cat=0
split_feature=7 3 3 7 7 7 7 7 3 3 2 3 3 7 3 7 7 3 7 3 3 5 7 2 7 3 7 0 3 3
split_gain=343406 340573 241659 507001 239850 141378 104899 92180.6 170032 87270.9 115722 75773.4 67181.6 42782.1 40118 34012.4 31932.5 27776.1 16405.1 116575 15547.4 14476.5 14113.1 5102.04 4125.4 4049.59 3944.29 9936.21 457.882 339.953
threshold=3.8462367695906781 0.98466855871126591 -0.51141396652460169 -0.18532590246051497 -0.13254858334007402 -0.19759806208009914 6.4729712211150856 0.70926882089168353 0.26615554533971114 0.21399919840580109 7817.5000000000009 2.1422789683452859 -0.24318504646876146 -0.16208615950182384 0.98988998212240775 6.4729712211150856 -0.20111444019459315 0.15038119032548247 0.075009151246050815 -0.057433776925057793 -0.11288100990024723 6.5000000000000009 -0.19197185709690867 3654.5000000000005 -0.10815986383247199 0.5266652102749777 6.4729712211150856 10.500000000000002 12.954668848757498 1.1056643371366361
decision_type=2 2 2 2 2 2 2 2 2 2 2 2 2 2 2 2 2 2 2 2 2 2 2 2 2 2 2 2 2 2
left_child=2 6 3 5 13 16 17 18 12 10 -8 15 -9 -5 -10 29 -1 20 24 -20 -2 -11 -7 -17 -4 -19 28 -28 -13 -3
right_child=1 11 7 4 -6 22 9 8 14 21 -12 26 -14 -15 -16 23 -18 25 19 -21 -22 -23 -24 -25 -26 -27 27 -29 -30 -31
leaf_value=0.048021850132663788 5.0383116436004647 0.69113218600933379 -0.014940879130276724 1.981518390183556 12.977690737588066 0.6465383099206391 4.1053087406471134 2.1949537048877126 0.24902058052580683 1.2522490286867913 11.573532271385194 0.07841880704227247 0.60791650902907024 4.1056490979875839 0.018979185051678046 1.2919200714056691 0.33280028953056245 1.4011470065397376 0.28803113791726387 -0.00065036488040751649 2.1009771179366896 2.8101798307036332 1.0669352099198064 1.9499557791992288 -0.0051608599519284435 0.76931050417827218 1.1364377980473741 0.17753355899723067 -0.025881920674022636 0.54805472619605788
leaf_weight=17555 20 286 1309454 978 21 2488 122 284 9734 73 25 855 4387 105 34275 192 5076 153 14688 293666 182 326 1176 305 643146 301 116 1579 829 396
leaf_count=17555 20 286 1309454 978 21 2488 122 284 9734 73 25 855 4387 105 34275 192 5076 153 14688 293666 182 326 1176 305 643146 301 116 1579 829 396
internal_value=0 0.771185 -0.00190071 0.293338 2.39271 0.205196 2.26855 -0.0054031 0.130747 3.29253 5.37541 0.37631 0.704409 2.18746 0.0698602 1.06656 0.111896 1.41628 -0.00833452 0.0131006 2.3918 2.52514 0.781469 1.69574 -0.0117195 0.982242 0.135467 0.243158 0.0270736 0.608055
internal_weight=0 5760 2.33703e+06 27399 1104 26295 1202 2.30963e+06 48680 546 147 4558 4671 1083 44009 1179 22631 656 2.26095e+06 308354 202 399 3664 497 1.9526e+06 454 3379 1695 1684 682
internal_count=2342793 5760 2337033 27399 1104 26295 1202 2309634 48680 546 147 4558 4671 1083 44009 1179 22631 656 2260954 308354 202 399 3664 497 1952600 454 3379 1695 1684 682
is_linear=0
shrinkage=0.1


Tree=5
num_leaves=31
num_cat=0
split_feature=7 3 3 7 7 7 7 7 3 3 2 3 3 3 7 7 7 3 7 3 7 4 3 1 7 1 7 0 3 3
split_gain=278159 275864 195744 412043 191409 120276 84967.8 75182 138529 70689.4 93735.1 63363.7 61610 36066.4 33168 28257.7 26227.9 23282 14362.2 67541.7 12739.3 12509.7 10849.8 6278.26 6213.16 4538.67 3093.76 8166.17 325.588 322.764
threshold=3.8462367695906781 0.98466855871126591 -0.51141396652460169 -0.18375408144333613 -0.13254858334007402 -0.19759806208009914 6.4729712211150856 0.77960341593779325 0.29504124691576111 0.21399919840580109 7817.5000000000009 -0.37126910977987793 2.3791822422931506 1.2211469712422507 -0.15915965381603617 6.4729712211150856 -0.201817715817492 -0.057433776925057793 0.2523225176694126 -0.018322305442375997 -0.19256085043108648 18.500000000000004 0.23721195658615393 21.500000000000004 -0.10641837757126883 13.500000000000002 6.4729712211150856 10.500000000000002 1.1056643371366361 12.954668848757498
decision_type=2 2 2 2 2 2 2 2 2 2 2 2 2 2 2 2 2 2 2 2 2 2 2 2 2 2 2 2 2 2
left_child=2 6 3 5 14 16 17 18 11 10 -8 -9 15 -10 -5 28 -1 23 24 -20 -7 -11 -19 -2 -4 -17 29 -28 -3 -14
right_child=1 12 7 4 -6 20 9 8 13 21 -12 -13 26 -15 -16 25 -18 22 19 -21 -22 -23 -24 -25 -26 -27 27 -29 -30 -31
leaf_value=0.025743682584646189 4.834770359992981 0.62201897080961643 -0.013433867759731315 1.8632176704034773 11.67992157709031 0.56254282817112189 3.6947778987102824 5.5912837908818176 0.2177433962225076 2.8091953844261859 10.41617889404297 0.63928822573292199 0.064816957018929991 0.0076414754385988482 3.9737083105393398 2.0811749877798973 0.25530806160102193 1.6977018216870867 0.37775246123043393 0.010274696687204885 0.93938455978229818 1.6883082707202872 0.81357580245430805 2.386733410575173 -0.0024589306231143819 1.3599669613774066 1.0227940247940093 0.15329575657350689 0.48348353166374375 -0.0232937290347816
leaf_weight=15241 20 286 1313559 923 21 2252 122 26 11376 208 25 4180 834 28995 81 112 7390 212 5274 96840 1491 191 402 22 849384 395 116 1569 417 829
leaf_count=15241 20 286 1313559 923 21 2252 122 26 11376 208 25 4180 834 28995 81 112 7390 212 5274 96840 1491 191 402 22 849384 395 116 1569 417 829
internal_value=0 0.694066 -0.00171064 0.264004 2.23112 0.187554 2.0417 -0.00486279 0.123746 2.96327 4.83787 0.6699 0.338679 0.0668453 2.03349 0.950239 0.100706 1.27466 -0.00739385 0.0292542 0.712655 2.27263 1.11884 3.55247 -0.00912403 1.51929 0.117656 0.213154 0.539844 0.0208941
internal_weight=0 5760 2.33703e+06 27399 1025 26374 1202 2.30963e+06 44577 546 147 4206 4558 40371 1004 1210 22631 656 2.26506e+06 102114 3743 399 614 42 2.16294e+06 507 3348 1685 703 1663
internal_count=2342793 5760 2337033 27399 1025 26374 1202 2309634 44577 546 147 4206 4558 40371 1004 1210 22631 656 2265057 102114 3743 399 614 42 2162943 507 3348 1685 703 1663
is_linear=0
shrinkage=0.1


Tree=6
num_leaves=31
num_cat=0
split_feature=7 3 3 7 7 7 7 7 3 3 2 3 3 3 7 7 7 3 7 7 3 4 3 1 7 2 7 0 3 3
split_gain=225309 223450 158553 335172 152304 103614 68824 61590.5 119460 58550.2 73565.7 55050.4 49904.1 34121.6 25886.7 22888.7 21197.8 19193.3 13619.3 13389.8 49445.2 11587.5 7297.86 6559.88 5906.39 4171.64 2505.94 6614.6 298.166 261.439
threshold=3.8462367695906781 0.98466855871126591 -0.51141396652460169 -0.18278531927279301 -0.13254858334007402 -0.19944328149567989 6.4729712211150856 0.84993097822767394 0.38366816959975092 0.38366816959975092 7817.5000000000009 -0.37126910977987793 2.3791822422931506 2.9551596584889377 -0.1696076922887266 6.4729712211150856 -0.19337840834270634 -0.0012108557712730498 -0.20278471979897786 0.32263601444683526 -0.18549468536517141 16.500000000000004 0.5266652102749777 13.500000000000002 -0.10641837757126883 3654.5000000000005 6.4729712211150856 10.500000000000002 1.4008889424229192 12.954668848757498
decision_type=2 2 2 2 2 2 2 2 2 2 2 2 2 2 2 2 2 2 2 2 2 2 2 2 2 2 2 2 2 2
left_child=2 6 3 5 14 18 17 19 11 10 -8 -9 15 -10 -5 28 -7 23 -1 24 -21 -11 -19 -2 -4 -17 29 -28 -3 -14
right_child=1 12 7 4 -6 16 9 8 13 21 -12 -13 26 -15 -16 25 -18 22 -20 20 -22 -23 -24 -25 -26 -27 27 -29 -30 -31
leaf_value=0.00050346049873443196 4.0589143773783816 0.51113037579188381 -0.012090481856575908 1.5924264287257541 10.511929584684827 0.41224804094995804 3.0050056718644642 5.6163544134660199 0.17511578475156642 0.93426116482856192 7.6659025402908982 0.60075580777253501 0.058335261232704286 -0.025124239997932701 2.8154573151559541 1.0104979097393889 0.82091123234051599 1.3203113588265012 0.16494087509525701 0.6992656831578532 0.026874662861539403 2.2427988669976142 0.61102186556274318 2.0307047000298133 -0.0015499766974319876 1.5979272949860082 0.92051461278300362 0.13796618055811044 0.31802609511043717 -0.020964355675101423
leaf_weight=12221 23 611 1313559 690 21 3749 147 22 14780 91 44 4129 834 20060 231 199 1919 280 8568 1113 62923 264 301 52 893048 308 116 1569 92 829
leaf_count=12221 23 611 1313559 690 21 3749 147 22 14780 91 44 4129 834 20060 231 199 1919 280 8568 1113 62923 264 301 52 893048 308 116 1569 92 829
internal_value=0 0.62466 -0.00153958 0.237604 2.09118 0.171607 1.83753 -0.00437652 0.120241 2.66695 4.07872 0.627338 0.304811 0.0598226 1.89918 0.855215 0.550608 1.14719 0.0682749 -0.00651641 0.0385614 1.90737 0.952848 2.65269 -0.00782458 1.36736 0.10589 0.191839 0.485859 0.0188047
internal_weight=0 5760 2.33703e+06 27399 942 26457 1202 2.30963e+06 38991 546 191 4151 4558 34840 921 1210 5668 656 20789 2.27064e+06 64036 355 581 75 2.20661e+06 507 3348 1685 703 1663
internal_count=2342793 5760 2337033 27399 942 26457 1202 2309634 38991 546 191 4151 4558 34840 921 1210 5668 656 20789 2270643 64036 355 581 75 2206607 507 3348 1685 703 1663
is_linear=0
shrinkage=0.1


Tree=7
num_leaves=30
num_cat=0
split_feature=7 3 3 7 7 7 7 7 3 3 3 2 3 3 7 7 7 3 7 7 3 4 3 7 1 0 7 3 3
split_gain=182500 180994 128428 272070 118680 93439.3 55747.4 49996.8 99550.9 53821.7 49840.7 64676.2 40422.3 28015.2 19861.7 18539.9 18361.9 16002.4 12335.4 12028.3 45460.2 11623.4 7805.15 4808.02 3631.01 2057.9 3843.13 324.358 246.011
threshold=3.8462367695906781 0.98466855871126591 -0.51141396652460169 -0.18145261196739979 -0.13254858334007402 -0.19759806208009914 6.4729712211150856 0.99058610280743531 0.58021374382793367 -0.24318504646876146 0.21399919840580109 7817.5000000000009 2.3791822422931506 2.9551596584889377 -0.15565646211947151 6.4729712211150856 -0.20111444019459315 -0.065711731016332139 -0.19081145231912564 0.32263601444683526 -0.22559602758322481 18.500000000000004 0.17923794831277898 -0.072898503194854442 13.500000000000002 13.500000000000002 6.4729712211150856 9.9019103952301908 1.1056643371366361
decision_type=2 2 2 2 2 2 2 2 2 2 2 2 2 2 2 2 2 2 2 2 2 2 2 2 2 2 2 2 2
left_child=2 6 3 5 14 16 17 19 9 -9 11 -8 15 -10 -5 28 -1 -2 -7 23 -21 -12 -19 -4 -17 26 -14 -27 -3
right_child=1 12 7 4 -6 18 10 8 13 -11 21 -13 25 -15 -16 24 -18 22 -20 20 -22 -23 -24 -25 -26 27 -28 -29 -30
leaf_value=0.032572615369029688 3.0821465525362228 0.50870405360535309 -0.010152916260896597 1.69844367021925 9.4607367741210133 0.48522571158788969 3.0247995604257114 2.4526429105449368 0.17223990804509257 0.50982697951921985 2.3375390826670741 8.6079709739685057 0.028252185620828707 -0.022472890757732084 3.6543817315782818 1.7331954108817236 0.24852097852432983 1.4219852604889518 0.86215291813015937 0.691744381739543 0.025477136231080597 1.257089186430036 0.66590049221075409 -3.7742268734110796e-05 1.0881208524937873 0.11659458929059136 0.35973769678106915 0.0098216331876269884 0.38828248320151865
leaf_weight=17555 36 286 1527992 712 21 2699 122 148 12135 3902 208 25 727 18895 56 112 5076 203 1280 1040 66907 191 417 678615 395 346 674 1601 417
leaf_count=17555 36 286 1527992 712 21 2699 122 148 12135 3902 208 25 727 18895 56 112 5076 203 1280 1040 66907 191 417 678615 395 346 674 1601 417
internal_value=0 0.562194 -0.00138562 0.213843 2.04387 0.159582 1.65378 -0.00393886 0.114534 0.580824 2.40025 3.97432 0.27433 0.0536741 1.84106 0.769693 0.0810086 1.03247 0.606479 -0.00576604 0.0356751 1.82033 0.913457 -0.00704212 1.23062 0.0953013 0.187725 0.0287962 0.437273
internal_weight=0 5760 2.33703e+06 27399 789 26610 1202 2.30963e+06 35080 4050 546 147 4558 31030 768 1210 22631 656 3979 2.27455e+06 67947 399 620 2.20661e+06 507 3348 1401 1947 703
internal_count=2342793 5760 2337033 27399 789 26610 1202 2309634 35080 4050 546 147 4558 31030 768 1210 22631 656 3979 2274554 67947 399 620 2206607 507 3348 1401 1947 703
is_linear=0
shrinkage=0.1


Tree=8
num_leaves=30
num_cat=0
split_feature=7 3 3 7 7 7 7 7 3 3 3 2 3 7 7 3 3 5 7 7 3 7 3 3 2 3 7 0 3
split_gain=147825 146605 104026 221273 110361 49907.3 45155.4 40660.8 82738.1 45521.4 40370.9 52387.7 32836.6 30100.4 14675.2 14041.2 13565.3 10863.2 9310.99 7959.83 7623.76 6924.5 84290.2 5210.19 3274.22 2014.44 2518.93 306.283 164.117
threshold=3.8462367695906781 0.98466855871126591 -0.51141396652460169 -0.18863129788813932 -0.13606144507645354 -0.20023534566596962 6.4729712211150856 0.61185987255302698 0.38366816959975092 -0.31290436305832997 0.21399919840580109 7817.5000000000009 2.1422789683452859 -0.17497544348050179 6.4729712211150856 2.1422789683452859 -0.11288100990024723 6.5000000000000009 -0.19607722854558049 -0.20375172378046372 0.5266652102749777 0.075009151246050815 0.40725554051330221 -0.19390279789807971 3633.5000000000005 11.638236284556084 6.4729712211150856 11.500000000000002 1.1056643371366361
decision_type=2 2 2 2 2 2 2 2 2 2 2 2 2 2 2 2 2 2 2 2 2 2 2 2 2 2 2 2 2
left_child=2 6 3 5 13 19 16 21 9 -9 11 -8 14 -5 28 -10 -2 -12 -7 -1 -18 23 -23 -4 -16 26 -14 -27 -3
right_child=1 12 7 4 -6 18 10 8 15 -11 17 -13 25 -15 24 -17 20 -19 -20 -21 -22 22 -24 -25 -26 27 -28 -29 -30
leaf_value=-0.031978165959944738 3.4935659801959993 0.45783364589397729 -0.0045740678210692692 0.97535846480148491 7.6775982079682521 0.26664307895871897 2.7223196080351464 2.1660562840985582 0.080734510363663747 0.3578730103121277 0.53564523221695259 7.7471738762855527 0.050680854407667425 1.9898989014747817 0.76331527153880607 -0.021090361770884497 1.1767676626746335 1.8852111840540648 0.51310779568136666 0.097488319039839788 0.483329637977372 0.11719475336807583 -0.017749028237868017 -0.015917207652473148 1.3021263839470016 0.099400976730086021 0.30028570759838091 -0.0062863954082630902 0.35842183668806094
leaf_weight=8312 20 286 1379392 1169 27 3896 122 142 29636 7136 73 25 855 390 173 24938 335 326 2527 11078 301 57482 237700 573208 324 340 767 1417 396
leaf_count=8312 20 286 1379392 1169 27 3896 122 142 29636 7136 73 25 855 390 173 24938 335 326 2527 11078 301 57482 237700 573208 324 340 767 1417 396
internal_value=0 0.505974 -0.00124706 0.192459 1.33893 0.122018 1.4884 -0.00354498 0.0764415 0.393152 2.16023 3.57689 0.246897 1.22916 0.701287 0.0342049 0.929224 1.6383 0.36361 0.0419893 0.848584 -0.00574596 0.00852913 -0.00790398 1.11457 0.0883515 0.168712 0.0141653 0.400111
internal_weight=0 5760 2.33703e+06 27399 1586 25813 1202 2.30963e+06 61852 7278 546 147 4558 1559 1179 54574 656 399 6423 19390 636 2.24778e+06 295182 1.9526e+06 497 3379 1622 1757 682
internal_count=2342793 5760 2337033 27399 1586 25813 1202 2309634 61852 7278 546 147 4558 1559 1179 54574 656 399 6423 19390 636 2247782 295182 1952600 497 3379 1622 1757 682
is_linear=0
shrinkage=0.1


Tree=9
num_leaves=30
num_cat=0
split_feature=7 3 3 7 7 3 7 2 7 3 7 3 3 3 7 7 4 7 3 7 3 3 7 0 3 7 1 3 3
split_gain=121928 182229 84860.2 181741 82798.6 72516.8 55308.1 43212 40192.3 35697.4 19426.1 62481.8 28080.4 20162.7 16359.5 11584.3 10027.3 8404.42 5154.34 4392.44 105174 4164.2 2981.23 5048.47 2712.59 1384.01 3126.23 460.774 117.688
threshold=2.4311583068627791 1.3318063847859292 -0.51141396652460169 -0.18278531927279301 -0.13254858334007402 0.23702382325925578 -0.19944328149567989 18937.500000000004 6.4729712211150856 -0.28396801020196111 0.32263601444683526 -0.081360476961428133 -0.41380171345323014 0.5266652102749777 -0.15807045569507169 -0.19337840834270634 18.500000000000004 -0.20375172378046372 2.9551596584889377 -0.10815986383247199 -0.19711553624972461 0.70025148946556137 6.4729712211150856 10.500000000000002 -0.50012596691071431 6.4729712211150856 13.500000000000002 6.4281008730282609 1.7424232897148937
decision_type=2 2 2 2 2 2 2 2 2 2 2 2 2 2 2 2 2 2 2 2 2 2 2 2 2 2 2 2 2
left_child=2 5 3 6 14 7 17 9 21 -2 19 12 -12 -13 -5 -8 -10 -1 25 24 -21 -7 27 -24 -4 28 -27 -20 -3
right_child=1 18 10 4 -6 8 15 -9 16 -11 11 13 -14 -15 -16 -17 -18 -19 22 20 -22 -23 23 -25 -26 26 -28 -29 -30
leaf_value=-0.028780350066843347 5.4450654237166702 0.31855633692307905 0.076313120664461803 1.2747468562406654 7.7469032568590981 0.7226426510840227 0.29923556364832254 6.2709544992446906 1.6191173489887232 1.4462763652421142 3.4358893394470216 0.12239144015093267 0.45768243109348772 0.0031680723852107228 2.8548159344095581 0.60133767028597884 0.91834021353113138 0.1010161342725565 0.09553309566436563 0.11502137262814582 -0.010500690387946411 0.40175771383869324 0.82237932172183903 0.096332137834171438 -0.0096632795979620153 1.4524753695025163 0.26264101063448286 -0.014971458435077238 0.2163102266729855
leaf_weight=8312 23 209 3680 850 21 487 3749 20 388 760 32 17506 2969 74771 71 1919 431 12477 401 72633 824520 2385 102 1568 1305774 34 63 6394 244
leaf_count=8312 23 209 3680 850 21 487 3749 20 388 760 32 17506 2969 74771 71 1919 431 12477 401 72633 824520 2385 102 1568 1305774 34 63 6394 244
internal_value=0 0.299561 -0.00173734 0.173213 1.53812 0.819752 0.124616 1.68098 0.632387 1.56374 -0.00381976 0.0403899 0.489439 0.0257861 1.39655 0.401517 1.25033 0.04912 0.0402442 -0.00572866 -0.000338495 0.45617 0.0209702 0.140678 -0.00942166 0.336888 0.679696 -0.00845014 0.263483
internal_weight=0 13509 2.32928e+06 27399 942 4494 26457 803 3691 783 2.30188e+06 95278 3001 92277 921 5668 819 20789 9015 2.20661e+06 897153 2872 8465 1670 1.30945e+06 550 97 6795 453
internal_count=2342793 13509 2329284 27399 942 4494 26457 803 3691 783 2301885 95278 3001 92277 921 5668 819 20789 9015 2206607 897153 2872 8465 1670 1309454 550 97 6795 453
is_linear=0
shrinkage=0.1


Tree=10
num_leaves=28
num_cat=0
split_feature=7 3 3 7 7 7 3 7 3 3 2 4 3 7 7 3 4 4 7 3 1 7 0 3 3 1 0
split_gain=99238.9 101831 67984.6 149352 63107.9 52151.4 46824.9 43139 80259.5 55254 42854.7 36725.4 19341 12753.2 10972.7 10619.3 8825.03 41655.7 6912.35 73598.3 5438.86 5123.71 3854.41 8186.86 3659.99 2223.85 1061.6
threshold=6.4729712211150856 0.38366816959975092 -0.51141396652460169 -0.18044165325948272 -0.13254858334007402 -0.19607722854558049 2.3791822422931506 0.99058610280743531 0.75834127209395052 -0.37126910977987793 7817.5000000000009 22.500000000000004 2.9551596584889377 -0.20111444019459315 -0.15363014923099436 1.0000000180025095e-35 16.500000000000004 18.500000000000004 0.075009151246050815 -0.052629141191967294 14.500000000000002 -0.19081145231912564 10.500000000000002 9.9019103952301908 -0.17553519647507237 13.500000000000002 13.500000000000002
decision_type=2 2 2 2 2 2 2 2 2 2 2 2 2 2 2 2 2 2 2 2 2 2 2 2 2 2 2
left_child=2 10 3 5 14 13 16 18 9 -9 15 -12 -10 -1 -5 -2 25 -18 24 -20 -17 -7 23 -8 -4 -3 -24
right_child=1 6 7 4 -6 21 22 8 12 -11 11 -13 -14 -15 -16 20 17 -19 19 -21 -22 -23 26 -25 -26 -27 -28
leaf_value=0.021740577307666889 3.620431033521891 1.1002615523338317 -0.0037923511370502637 1.3017021542088989 6.9722126506623772 0.38436987612345447 -0.23168184656017232 5.5739278679802311 0.14385492415130138 0.43474458347236838 8.3271652066189308 2.5430616551211904 -0.015932009780396508 0.19354780660501805 2.8529390374008492 3.0596636883914474 2.7611820536096108 0.79062325053471838 0.2238520645388633 -0.0014030446838624506 1.2452932562796695 0.63585901153780489 0.19760484355752186 1.4547913110445416 -0.013324761710207619 0.38147585585788646 0.025775064909729358
leaf_weight=17555 32 55 1384566 657 21 2044 53 21 12000 5537 23 21 20544 5731 49 20 139 470 15225 306729 95 1342 558 63 568034 198 1011
leaf_count=17555 32 55 1384566 657 21 2044 53 21 12000 5537 23 21 20544 5731 49 20 139 470 15225 306729 95 1342 558 63 568034 198 1011
internal_value=0 0.601687 -0.000704008 0.155892 1.57005 0.117346 0.434683 -0.00255927 0.102965 0.454162 2.82869 5.56657 0.0429865 0.0640247 1.40937 2.00918 1.03416 1.24039 -0.00432695 0.00924913 1.56084 0.484045 0.128009 0.684248 -0.00656544 0.537734 0.0868847
internal_weight=0 2738 2.34006e+06 27399 727 26672 2547 2.31266e+06 38102 5558 191 44 32544 23286 706 147 862 609 2.27455e+06 321954 115 3386 1685 116 1.9526e+06 253 1569
internal_count=2342793 2738 2340055 27399 727 26672 2547 2312656 38102 5558 191 44 32544 23286 706 147 862 609 2274554 321954 115 3386 1685 116 1952600 253 1569
is_linear=0
shrinkage=0.1


Tree=11
num_leaves=31
num_cat=0
split_feature=7 3 3 7 7 3 7 7 4 3 7 7 3 3 3 7 7 1 7 3 7 3 3 7 0 3 1 7 3 3
split_gain=85609.4 128403 56157.6 128237 91508.4 52313.8 41855.9 31322.2 28401.3 27534.6 24752.7 12772.4 44837.7 20719.6 15246.8 11983.7 7481.71 6997.94 3940.92 81783.2 3634.21 3450.46 2752.9 1914.74 3234.36 1408.18 865.453 2262.56 381.554 96.0538
threshold=2.4311583068627791 1.3318063847859292 -0.50012596691071431 -0.18145261196739979 -0.11866592254405153 0.23702382325925578 -0.19979579840165612 6.4729712211150856 23.500000000000004 -0.28396801020196111 6.4729712211150856 0.32263601444683526 -0.11022688281154604 -0.40598405013089439 0.4687124272990571 -0.19443332177705452 -0.169001996158505 12.500000000000002 -0.10815986383247199 -0.19697371266483218 -0.20375172378046372 2.9551596584889377 0.70025148946556137 6.4729712211150856 10.500000000000002 -0.46909843976690108 12.500000000000002 6.4729712211150856 7.296408535634975 1.8544349781911598
decision_type=2 2 2 2 2 2 2 2 2 2 2 2 2 2 2 2 2 2 2 2 2 2 2 2 2 2 2 2 2 2
left_child=2 5 3 6 16 7 20 9 -9 -2 22 18 13 -13 -14 -8 -5 -12 25 -20 -1 26 -7 28 -25 -4 27 -3 -23 -28
right_child=1 21 11 4 -6 10 15 8 -10 -11 17 12 14 -15 -16 -17 -18 -19 19 -21 -22 23 -24 24 -26 -27 29 -29 -30 -31
leaf_value=-0.028076374301322961 4.6795007342383981 0.22358386030322627 0.010194926763532512 0.97026356940902181 7.9998841047286993 0.60690392681705396 0.2004051726863465 3.8774025253274225 1.1088047718629241 0.99863243662648726 1.6384570631825803 2.598223311402077 0.1091883948793492 0.38668363031642911 0.0018255254588423698 0.45195536169067352 1.6122764412994979 0.87675756788812587 0.10061676857253375 -0.0087953888980924506 0.056014309140151201 0.075210516596489072 0.34600118296951121 0.65914504276771169 0.078006556710912556 -0.008900249587463013 0.25539400755377956 1.2049923789851806 -0.012925306556039025 0.16143304532025068
leaf_weight=8312 21 76 39835 618 20 487 5527 88 64 630 147 43 15998 2862 76375 2881 257 672 74505 822647 13465 533 2385 102 1568 1265939 243 34 6262 197
leaf_count=8312 21 76 39835 618 20 487 5527 88 64 630 147 43 15998 2862 76375 2881 257 672 74505 822647 13465 533 2385 102 1568 1265939 243 34 6262 197
internal_value=0 0.251011 -0.00145577 0.132064 1.3117 0.687671 0.0970874 1.41916 2.71168 1.11737 0.528531 -0.00326145 0.032585 0.419419 0.0204196 0.286599 1.15883 1.01347 -0.00481183 0.000290867 0.023918 0.0333357 0.390242 0.017566 0.113501 -0.00831772 0.276046 0.526928 -0.00601193 0.213325
internal_weight=0 13509 2.32928e+06 31080 895 4494 30185 803 152 651 3691 2.2982e+06 95278 2905 92373 8408 875 819 2.20293e+06 897152 21777 9015 2872 8465 1670 1.30577e+06 550 110 6795 440
internal_count=2342793 13509 2329284 31080 895 4494 30185 803 152 651 3691 2298204 95278 2905 92373 8408 875 819 2202926 897152 21777 9015 2872 8465 1670 1305774 550 110 6795 440
is_linear=0
shrinkage=0.1


Tree=12
num_leaves=29
num_cat=0
split_feature=7 3 3 7 7 3 7 7 3 3 7 7 3 3 3 3 7 7 3 7 3 7 3 3 7 0 3 3
split_gain=69343.6 105078 46106.3 99675.5 47910.8 30489 29331.1 24838.9 23763.8 16844.8 10716.6 10700.9 34699.8 14909.9 12090.8 8079.03 6960.34 5201.6 4756.49 4123.86 61622.3 4044.4 2725.43 2465.35 1620.33 2490.74 496.943 264.682
threshold=2.4311583068627791 0.98466855871126591 -0.51141396652460169 -0.18637817861127731 -0.14324804284795067 -0.16808511672990673 6.4729712211150856 -0.20023534566596962 2.1422789683452859 0.38366816959975092 -0.17148455910733776 0.61185987255302698 -0.15627613251845549 0.81308807022130392 -0.40021269853343505 0.11614092483002436 6.4729712211150856 -0.19443332177705452 -0.28893424763882919 -0.0023617164071613496 0.15038119032548247 -0.20375172378046372 1.2213923824088593 -0.18549468536517141 6.4729712211150856 10.500000000000002 6.4281008730282609 1.1844873771745259
decision_type=2 2 2 2 2 2 2 2 2 2 2 2 2 2 2 2 2 2 2 2 2 2 2 2 2 2 2 2
left_child=2 5 3 7 10 18 15 21 16 -8 -5 19 14 -14 -13 -7 27 -9 -2 23 -21 -1 -18 -4 26 -26 -10 -3
right_child=1 8 11 4 -6 6 9 17 24 -11 -12 12 13 -15 -16 -17 22 -19 -20 20 -22 -23 -24 -25 25 -27 -28 -29
leaf_value=-0.025268736056431314 4.3744916629791266 0.3207431135812151 -0.0040203152392628951 0.72922315881587574 4.5239880175203897 0.95152123922651466 2.2168668323638721 0.19544721596929651 0.09088472716940138 1.0270976743437874 1.4525995068252087 3.1718368697166444 0.14398159059013391 0.0071120982257367226 0.67628948725366667 0.45705570712455384 0.54134052605230432 0.39106960575644695 2.4510857529110379 0.090090545393780017 -0.011217352012532933 0.067016509086523152 1.0433810211390069 -0.012797153539632367 0.5532162905253214 0.073119586819406543 -0.010770532019461996 0.24880826787266416
leaf_weight=8312 20 1022 1374620 1024 37 440 179 4795 520 355 256 20 9732 43688 663 1327 338 1897 36 71140 384859 11078 159 417163 116 1579 6394 1024
leaf_count=8312 20 1022 1374620 1024 37 440 179 4795 520 355 256 20 9732 43688 663 1327 338 1897 36 71140 384859 11078 159 417163 116 1579 6394 1024
internal_value=0 0.22591 -0.0013102 0.127646 0.976445 0.832563 0.776454 0.0847866 0.097693 1.42592 0.873898 -0.00284515 0.0411023 0.0320468 0.749366 0.580182 0.36628 0.250901 3.13802 -0.00390294 0.0045876 0.0274562 0.701953 -0.00606374 0.0183555 0.105976 -0.00312507 0.284741
internal_weight=0 13509 2.32928e+06 27399 1317 2357 2301 26082 11152 534 1280 2.30188e+06 54103 53420 683 1767 2543 6692 56 2.24778e+06 455999 19390 497 1.79178e+06 8609 1695 6914 2046
internal_count=2342793 13509 2329284 27399 1317 2357 2301 26082 11152 534 1280 2301885 54103 53420 683 1767 2543 6692 56 2247782 455999 19390 497 1791783 8609 1695 6914 2046
is_linear=0
shrinkage=0.1


Tree=13
num_leaves=29
num_cat=0
split_feature=7 3 3 7 7 7 3 7 3 3 7 3 3 3 7 3 7 7 3 7 2 7 3 3 7 0 3 7
split_gain=56168.4 85112.8 37346.1 82483.6 33428.2 29654.2 24696.1 23758.2 19248.7 13644.3 9052.93 44873.6 24201 9300.8 7654.7 6544.71 6133.56 5637.87 3852.76 3193.14 2596.15 2540.22 60491.3 1820.95 1312.46 2017.5 402.524 224.866
threshold=2.4311583068627791 0.98466855871126591 -0.51141396652460169 -0.18009001544803332 -0.13254858334007402 -0.19607722854558049 -0.16808511672990673 6.4729712211150856 2.1422789683452859 0.38366816959975092 0.2523225176694126 0.15038119032548247 -0.3175353372588991 0.98988998212240775 -0.20278471979897786 0.15038119032548247 -0.15201701077097021 6.4729712211150856 -0.28893424763882919 -0.19081145231912564 3633.5000000000005 -0.10815986383247199 -0.21502748288986576 -0.46909843976690108 6.4729712211150856 10.500000000000002 6.4281008730282609 2.9940425335386531
decision_type=2 2 2 2 2 2 2 2 2 2 2 2 2 2 2 2 2 2 2 2 2 2 2 2 2 2 2 2
left_child=2 6 3 5 16 14 18 15 17 -9 21 12 -12 -13 -1 -8 -5 27 -2 -7 -19 23 -23 -4 26 -26 -10 -3
right_child=1 8 10 4 -6 19 7 9 24 -11 11 13 -14 -15 -16 -17 -18 20 -20 -21 -22 22 -24 -25 25 -27 -28 -29
leaf_value=-0.0075021562952279717 3.9370425415039065 0.21977087259292605 0.013196807606089024 1.0065006498915066 5.1442731811886748 0.28129811719672321 0.85140496761269047 1.9951801774534268 0.08179625377166444 0.92438790853174657 0.95490006312836706 0.045882881500539617 0.17501522615427195 -0.013613318357420232 0.10730857331721533 0.4096672755953889 2.2430880302606631 0.3189799910680407 2.2059771822558512 0.47700337965718725 0.79876566768083501 0.088260234307943108 -0.0079441555520433707 -0.0076081930068382046 0.49789466358528572 0.065807628577092617 -0.0096934790616114517 0.28638105648474221
leaf_weight=12221 20 925 43515 597 21 2044 450 179 520 355 411 37331 12482 88718 11065 1317 43 173 36 1408 324 71318 782171 1265939 116 1579 6394 1121
leaf_count=12221 20 925 43515 597 21 2044 450 179 520 355 411 37331 12482 88718 11065 1317 43 173 36 1408 324 71318 782171 1265939 116 1579 6394 1121
internal_value=0 0.203319 -0.00117918 0.114882 1.2184 0.0876012 0.749306 0.698809 0.0879237 1.28332 -0.00256063 0.0221827 0.199876 0.00400723 0.0470534 0.522164 1.08958 0.329652 2.82421 0.361122 0.631758 -0.00415008 9.4735e-05 -0.00691681 0.0165199 0.0953782 -0.00281256 0.256266
internal_weight=0 13509 2.32928e+06 27399 661 26738 2357 2301 11152 534 2.30188e+06 138942 12893 126049 23286 1767 640 2543 56 3452 497 2.16294e+06 853489 1.30945e+06 8609 1695 6914 2046
internal_count=2342793 13509 2329284 27399 661 26738 2357 2301 11152 534 2301885 138942 12893 126049 23286 1767 640 2543 56 3452 497 2162943 853489 1309454 8609 1695 6914 2046
is_linear=0
shrinkage=0.1


Tree=14
num_leaves=28
num_cat=0
split_feature=7 3 3 7 7 3 2 3 7 7 7 7 3 3 3 4 7 3 3 3 3 7 0 1 7 3 7
split_gain=45496.4 68959.6 30518.9 78932.9 58955.6 28739.2 27155 15739.5 14031.9 13441.7 12777.5 8533.9 21715.5 13906.2 7307.56 6325.39 3961.78 50853.7 1834.46 1608.96 1533.43 1019.12 1785.7 618.823 1454.48 218.808 141.442
threshold=2.4311583068627791 1.3318063847859292 -0.50012596691071431 -0.11866592254405153 -0.19112353087678699 0.21399919840580109 18937.500000000004 -0.19127857918432736 -0.17832127725644281 6.4729712211150856 -0.19979579840165612 1.1722070324210523 -0.061920033181859145 1.7424232897148937 -0.28893424763882919 18.500000000000004 -0.028811912584385448 -0.22473785017668188 0.70025148946556137 2.9551596584889377 -0.22473785017668188 6.4729712211150856 10.500000000000002 12.500000000000002 6.4729712211150856 7.9893180503951333 6.4729712211150856
decision_type=2 2 2 2 2 2 2 2 2 2 2 2 2 2 2 2 2 2 2 2 2 2 2 2 2 2 2
left_child=2 5 3 4 10 6 7 -2 -6 18 -1 16 14 -14 -13 -11 20 -18 -7 23 -4 25 -23 24 -3 -21 -25
right_child=1 19 11 -5 8 9 -8 -9 -10 15 -12 12 13 -15 -16 -17 17 -19 -20 21 -22 22 -24 26 -26 -27 -28
leaf_value=0.015862597644797107 2.9397090460124771 0.15813281077303387 -0.0035755241993707318 6.3775802755355837 0.42764906057536206 0.45975172318578733 4.6873060988262294 0.85257618189212825 0.98209336388344859 1.0350214931117923 0.17223653046001089 1.9787448982397717 0.1525481123106345 -0.014434788569398447 0.65336798589963185 0.48002818265694308 0.17064980611989988 -0.0012114241974431248 0.2476731349349772 0.049045912180171937 -0.01044155354689162 0.48811945157016023 0.056313179572093856 0.15934460855259583 0.94500574329320131 -0.010517477044976856 -0.0025283398609312756
leaf_weight=21777 38 76 1323858 20 1796 492 20 735 612 389 6875 48 7885 13571 312 435 17827 503470 2385 686 431233 102 1568 377 34 6109 63
leaf_count=21777 38 76 1323858 20 1796 492 20 735 612 389 6875 48 7885 13571 312 435 17827 503470 2385 686 431233 102 1568 377 34 6109 63
internal_value=0 0.182987 -0.00106126 0.0973686 0.0933247 0.502989 1.0493 0.955178 0.568563 0.385932 0.0533843 -0.00239239 0.0598541 0.0469308 0.830085 0.742034 -0.00298893 0.00466578 0.283941 0.0234657 -0.00526254 0.0126972 0.082687 0.189203 0.401348 -0.00450416 0.136167
internal_weight=0 13509 2.32928e+06 31080 31060 4494 793 773 2408 3701 28652 2.2982e+06 21816 21456 360 824 2.27639e+06 521297 2877 9015 1.75509e+06 8465 1670 550 110 6795 440
internal_count=2342793 13509 2329284 31080 31060 4494 793 773 2408 3701 28652 2298204 21816 21456 360 824 2276388 521297 2877 9015 1755091 8465 1670 550 110 6795 440
is_linear=0
shrinkage=0.1


Tree=15
num_leaves=31
num_cat=0
split_feature=7 3 3 7 7 7 3 7 3 2 3 5 7 3 3 4 7 3 7 7 3 3 7 7 2 3 0 7 3 3
split_gain=36852.1 56460.8 24917 54824.7 25126.2 17957.8 15558.1 15255.8 13631.2 27360.9 12452.1 7585.23 6895.19 18062.2 12670.3 5963.76 5008.73 4489.35 3620.97 3566.91 41301.8 3515.4 3427.72 2577.91 2227.75 1852.04 898.151 1563.69 235.411 200.973
threshold=2.4311583068627791 0.98466855871126591 -0.51141396652460169 -0.18532590246051497 -0.14678639832566032 6.4729712211150856 -0.25513295990622986 -0.19944328149567989 0.21399919840580109 7817.5000000000009 2.3791822422931506 6.5000000000000009 1.1722070324210523 -0.15040058400148337 1.7424232897148937 22.500000000000004 -0.17126390638065334 0.030699450829523654 6.4729712211150856 0.14683117423459149 -0.22559602758322481 -0.34176835694281477 -0.20278471979897786 -0.19337840834270634 3654.5000000000005 -0.098620503721369587 13.500000000000002 6.4729712211150856 1.1844873771745259 7.296408535634975
decision_type=2 2 2 2 2 2 2 2 2 2 2 2 2 2 2 2 2 2 2 2 2 2 2 2 2 2 2 2 2 2
left_child=2 5 3 7 16 6 -2 22 9 -7 18 -10 19 21 -15 -6 -5 -8 28 25 -21 -14 -1 -9 -20 -4 27 -12 -3 -28
right_child=1 10 12 4 15 8 17 23 11 -11 26 -13 13 14 -16 -17 -18 -19 24 20 -22 -23 -24 -25 -26 -27 29 -29 -30 -31
leaf_value=-0.0083382007822537033 2.7554140567779544 0.2383657797106675 -0.0022215777580359918 0.57549844489040147 4.4491881263256081 1.3176828162347685 0.82275183364748961 0.16602388327520479 -0.11259158255710995 4.9490799942016608 0.01186844324136186 1.0151267139595344 2.2016973667144777 0.14514686107884311 -0.012991310002641998 2.0363547461373463 1.1002015101551499 0.35781103526797731 0.24078727676790562 0.3904999927285302 0.0046186064342298048 0.91074355584603772 0.07415652445280084 0.31281787955632046 0.67006196382564387 -0.0092685562391724759 0.095237593112453334 0.19393269457586265 0.17149926077773447 -0.010281083911388844
leaf_weight=12221 29 1022 1579974 830 20 122 240 3749 73 25 1572 326 25 8085 13571 21 233 1542 199 2811 209107 135 8568 1757 308 488177 186 674 1086 6105
leaf_count=12221 29 1022 1579974 830 20 122 240 3749 73 25 1572 326 25 8085 13571 21 233 1542 199 2811 209107 135 8568 1757 308 488177 186 674 1086 6105
internal_value=0 0.164689 -0.000955134 0.0938456 0.784201 0.60938 0.45782 0.0648609 1.11208 1.93527 0.0707021 0.808802 -0.00208353 0.0538687 0.0460476 3.21335 0.690509 0.420429 0.261627 -0.00261889 0.00973716 1.11246 0.0256613 0.212867 0.50157 -0.00388498 0.0122193 0.0665039 0.203917 -0.00716131
internal_weight=0 13509 2.32928e+06 27399 1104 2357 1811 26295 546 147 11152 399 2.30188e+06 21816 21656 41 1063 1782 2615 2.28007e+06 211918 160 20789 5506 507 2.06815e+06 8537 2246 2108 6291
internal_count=2342793 13509 2329284 27399 1104 2357 1811 26295 546 147 11152 399 2301885 21816 21656 41 1063 1782 2615 2280069 211918 160 20789 5506 507 2068151 8537 2246 2108 6291
is_linear=0
shrinkage=0.1


Tree=16
num_leaves=28
num_cat=0
split_feature=7 3 3 7 7 3 7 2 1 3 7 7 1 7 4 7 3 3 3 7 3 3 3 7 0 7 3
split_gain=29850.2 46022.8 20283.7 57382 39671.1 17616.5 13631.8 28944.7 30184.3 11003.5 9374.57 8636.5 7981.91 7573.45 6619.54 5644.93 17871.7 7987.18 6015.84 3343.74 50029 2636.16 1039.9 706.479 1296.15 301.002 225.404
threshold=2.4311583068627791 0.5266652102749777 -0.50012596691071431 -0.11866592254405153 -0.19112353087678699 2.1422789683452859 6.4729712211150856 7817.5000000000009 24.500000000000004 -0.28396801020196111 -0.17832127725644281 -0.19979579840165612 13.500000000000002 6.4729712211150856 18.500000000000004 0.99058610280743531 -0.022600167860151746 -0.35620397183365143 1.4008889424229192 -0.10815986383247199 -0.19711553624972461 -0.057433776925057793 -0.45150073780473837 6.4729712211150856 9.5000000000000018 2.9940425335386531 7.9893180503951333
decision_type=2 2 2 2 2 2 2 2 2 2 2 2 2 2 2 2 2 2 2 2 2 2 2 2 2 2 2
left_child=2 6 3 4 11 13 9 12 -9 -2 -6 -1 -8 25 -15 19 17 -17 -18 22 -21 -11 -4 26 -25 -3 -7
right_child=1 5 15 -5 10 23 7 8 -10 21 -12 -13 -14 14 -16 16 18 -19 -20 20 -22 -23 -24 24 -26 -27 -28
leaf_value=0.012325629471717101 2.8373675528026765 0.16031304382879263 0.0044138791114896143 5.4340596145391471 0.35059833241199334 0.047489815532976057 2.2903885036706924 1.2070552568435671 6.2267456935799643 0.97932707737865199 0.80378292873014812 0.1408871142734181 0.55272543455327028 0.86043485789136465 0.28587944400496784 2.4912887746095658 0.085408324442851777 0.46631583147738359 -0.011009345337793019 0.081126210575225607 -0.004574354182121149 0.46309589072798052 -0.0065681168807022365 -0.44244501615564036 0.084719153346338907 0.22553113627716909 -0.0088041815792729797
leaf_weight=21777 21 1256 92823 20 1796 805 32 25 23 112 612 6875 152 363 448 20 11158 747 15406 73753 891346 847 1212951 48 1647 1621 6109
leaf_count=21777 21 1256 92823 20 1796 805 32 25 23 112 612 6875 152 363 448 20 11158 747 15406 73753 891346 847 1212951 48 1647 1621 6109
internal_value=0 0.14822 -0.000859621 0.079385 0.075937 0.0902733 0.736147 1.42542 3.61232 0.572971 0.465776 0.0431737 0.854928 0.273143 0.543048 -0.00194482 0.0432308 0.519118 0.0294901 -0.00248853 0.00197489 0.523386 -0.00578744 0.011934 0.0697906 0.197059 -0.00224985
internal_weight=0 13509 2.32928e+06 31080 31060 12297 1212 232 48 980 2408 28652 184 3688 811 2.2982e+06 27331 767 26564 2.27087e+06 965099 959 1.30577e+06 8609 1695 2877 6914
internal_count=2342793 13509 2329284 31080 31060 12297 1212 232 48 980 2408 28652 184 3688 811 2298204 27331 767 26564 2270873 965099 959 1305774 8609 1695 2877 6914
is_linear=0
shrinkage=0.1


Tree=17
num_leaves=30
num_cat=0
split_feature=7 3 3 3 7 7 2 7 7 3 3 7 3 3 7 7 7 3 7 3 0 7 0 7 1 7 7 7 3
split_gain=24757.4 50203 19760.2 16753.6 36971.5 16702.4 16067.1 14588.5 13940 6432.49 4574.14 3551.08 45376.1 25918.8 3518.51 2548.39 1681.88 1379.9 17013.9 1339.81 1193.62 781.981 2042.45 603.545 257.067 942.405 263.584 64.3111 6.71856
threshold=1.6397095027430344 1.3318063847859292 -0.20702775061162257 -0.51141396652460169 -0.18009001544803332 6.4729712211150856 17337.500000000004 -0.14159094966149535 -0.19759806208009914 0.26615554533971114 -0.34176835694281477 0.075009151246050815 0.35291395262849867 -0.35335302834142607 -0.20278471979897786 -0.16265932913448636 -0.19197185709690867 -0.057433776925057793 -0.065734761881101431 4.1126137727436891 14.500000000000002 6.4729712211150856 10.500000000000002 0.61185987255302698 12.500000000000002 6.4729712211150856 6.4729712211150856 3.8462367695906781 0.081254252520034917
decision_type=2 2 2 2 2 2 2 2 2 2 2 2 2 2 2 2 2 2 2 2 2 2 2 2 2 2 2 2 2
left_child=3 2 10 4 8 9 -7 15 14 -4 -2 17 13 -13 -1 -6 -10 18 -5 24 -12 27 -23 -14 25 -3 -26 -21 -19
right_child=1 19 5 11 7 6 -8 -9 16 -11 20 12 23 -15 -16 -17 -18 28 -20 21 -22 22 -24 -25 26 -27 -28 -29 -30
leaf_value=-0.0087369416370864754 2.9240418434143067 0.10272059285170621 0.43280375589866793 -0.0044696025118022053 0.61774289163799789 0.62892915527656601 3.4931213301420216 2.8329122641507318 0.17628709665736203 0.18890350496316244 1.9260571375489235 0.82703223230528633 -0.011704967186094761 0.079218969970738448 0.070376916538340675 1.1661626438103101 0.30723898305504171 -0.0088548292165289352 0.048326530569769648 -0.012647671449592177 0.92872022052605951 0.52568488332960339 0.035822703314431929 0.0019437691659242595 0.096862959083298172 0.64837424808587785 -0.10376541018486024 0.0085185271015853267 -0.0097273952485927469
leaf_weight=12221 28 168 1381 1532377 526 945 20 34 2488 4983 20 467 239003 61440 10410 101 1619 196445 63570 12425 30 90 1568 37479 1015 39 70 1623 160208
leaf_count=12221 28 168 1381 1532377 526 945 20 34 2488 4983 20 467 239003 61440 10410 101 1619 196445 63570 12425 30 90 1568 37479 1015 39 70 1623 160208
internal_value=0 0.100193 0.317465 -0.00105471 0.0766782 0.300615 0.688291 0.815483 0.0584139 0.24183 1.90072 -0.00198435 0.00747296 0.0848602 0.0276545 0.706085 0.227909 -0.00362332 -0.00236662 0.0055157 1.32765 -0.00253662 0.0624135 -0.00985479 0.103402 0.205525 0.0839192 -0.0102023 -0.00924678
internal_weight=0 24405 7407 2.31839e+06 27399 7329 965 661 26738 6364 78 2.29099e+06 338389 61907 22631 627 4107 1.9526e+06 1.59595e+06 16998 50 15706 1658 276482 1292 207 1085 14048 356653
internal_count=2342793 24405 7407 2318388 27399 7329 965 661 26738 6364 78 2290989 338389 61907 22631 627 4107 1952600 1595947 16998 50 15706 1658 276482 1292 207 1085 14048 356653
is_linear=0
shrinkage=0.1


Tree=18
num_leaves=26
num_cat=0
split_feature=7 3 3 7 3 7 7 4 3 7 3 7 7 3 3 7 3 7 3 3 3 7 0 7 3
split_gain=20053.5 41246.5 14235.9 13772.9 13593.4 42074.9 26723.3 12056.5 8688.68 8574.7 4899.6 3533.98 3062.6 34531.7 19632.3 1864.31 2519.26 1204.57 33184.9 785.77 765.318 572.618 1238.44 222.035 213.537
threshold=1.6397095027430344 0.98466855871126591 -0.34137038259745339 6.4729712211150856 -0.50012596691071431 -0.11866592254405153 -0.19499682136990218 23.500000000000004 2.3791822422931506 -0.17832127725644281 -0.057433776925057793 -0.20023534566596962 0.14683117423459149 0.4687124272990571 -0.27265830289650878 6.4729712211150856 1.2213923824088593 -0.12576197357910046 -0.28438045634169939 -0.45150073780473837 0.64242219913595411 6.4729712211150856 13.500000000000002 2.9940425335386531 5.2703573228859755
decision_type=2 2 2 2 2 2 2 2 2 2 2 2 2 2 2 2 2 2 2 2 2 2 2 2 2
left_child=4 2 -2 10 5 6 11 -5 15 -8 -4 -1 17 14 -14 23 -17 19 -19 -6 -15 24 -23 -3 -10
right_child=1 8 3 7 12 -7 9 -9 21 -11 -12 -13 13 20 -16 16 -18 18 -20 -21 -22 22 -24 -25 -26
leaf_value=0.0088335241839589546 2.5924127323874111 0.11905381146921762 0.69936653129810844 1.1520586841543516 0.0037367066020373863 4.6499231016635898 0.24477306031292737 0.13681923936395085 0.054324386276414699 0.65364485753127954 0.25836067625875714 0.097564778352930606 0.36446646561317503 0.023627234518412144 0.074165156171592778 0.18167681926145005 0.65454338764297892 0.090975629868542879 -0.0043963361791691915 -0.0058497502903215254 -0.010840052077082749 0.15934406046918664 -0.015653227496630596 0.17160200987868526 -0.0096548305712026855
leaf_weight=21615 29 2631 274 375 92697 20 3168 170 542 612 3127 5665 2477 6689 39137 338 169 38157 831947 1101669 174535 674 1011 1158 13907
leaf_count=21615 29 2631 274 375 92697 20 3168 170 542 612 3127 5665 2477 6689 39137 338 169 38157 831947 1101669 174535 674 1011 1158 13907
internal_value=0 0.0901741 0.384901 0.368678 -0.000949236 0.0647397 0.0617873 0.835378 0.03283 0.310971 0.29389 0.0272596 -0.00184182 0.00929581 0.0914448 0.159211 0.339299 -0.00304401 -0.000213953 -0.00510573 -0.00956786 -0.00082146 0.0543457 0.135114 -0.00725489
internal_weight=0 24405 3975 3946 2.31839e+06 31080 31060 545 20430 3780 3401 27280 2.28731e+06 222838 41614 4296 507 2.06447e+06 870104 1.19437e+06 181224 16134 1685 3789 14449
internal_count=2342793 24405 3975 3946 2318388 31080 31060 545 20430 3780 3401 27280 2287308 222838 41614 4296 507 2064470 870104 1194366 181224 16134 1685 3789 14449
is_linear=0
shrinkage=0.1


Tree=19
num_leaves=31
num_cat=0
split_feature=7 3 3 7 7 7 2 1 3 7 3 3 4 7 4 7 3 3 3 7 7 7 7 3 7 3 7 3 3 0
split_gain=16256 28475.4 11130.3 24927.9 11428.9 11025.6 20906.5 22852.1 9176.93 7312.84 7148.55 5868.52 4111.13 3491.15 9461.48 3450.55 31355.2 17960.2 6077.69 2179.41 1929.1 1562.89 1416.79 1125.38 20713.5 455.004 1125.12 281.556 234.167 53.0411
threshold=2.4311583068627791 0.41083296808324182 -0.51141396652460169 -0.18532590246051497 -0.14852700549233486 6.4729712211150856 7817.5000000000009 24.500000000000004 1.3318063847859292 -0.20111444019459315 0.17917449506028893 -0.25513295990622986 22.500000000000004 6.4729712211150856 16.500000000000004 0.14683117423459149 0.17425965104716715 -0.39368591926950797 0.64242219913595411 -0.17148455910733776 -0.19607722854558049 2.9940425335386531 -0.20375172378046372 -0.11950040864818574 -0.085324504356947731 11.638236284556084 6.4729712211150856 0.87394196557565784 0.063839859952346562 10.500000000000002
decision_type=2 2 2 2 2 2 2 2 2 2 2 2 2 2 2 2 2 2 2 2 2 2 2 2 2 2 2 2 2 2
left_child=2 5 3 9 19 11 10 -8 13 22 -7 -2 -6 27 -15 23 17 -17 -18 -5 -11 -13 -1 24 -4 26 -10 -3 -25 -27
right_child=1 8 15 4 12 6 7 -9 25 20 -12 21 -14 14 -16 16 18 -19 -20 -21 -22 -23 -24 28 -26 29 -28 -29 -30 -31
leaf_value=-0.023986306683275997 1.8494183280601584 0.22532712715815328 -0.0039047516445011492 0.37944421747609813 3.0710604576837448 1.2217945803670174 0.95734549909830102 5.3683965558591105 0.0121764187574461 0.083878889008043453 -0.22191261558069125 0.22294690957112662 1.233858924076475 -0.14046782688137802 0.62131733273650802 1.164098813475632 0.042710782504323003 0.11383754362409848 -0.0083868531740922386 0.7208545123598703 0.18275839932418891 0.50202208229181844 0.032911307683989796 -0.00465125458241858 0.050826554869186392 -0.17164752816870099 0.13852223501195499 0.13655415197367859 -0.0087685810671740486 -0.012276330145161397
leaf_weight=8312 29 427 1438937 811 21 94 24 23 4407 5731 54 310 29 233 543 164 26644 22695 184231 243 3009 569 9243 302018 72639 21 839 2188 254557 3748
leaf_count=8312 29 427 1438937 811 21 94 24 23 4407 5731 54 310 29 233 543 164 26644 22695 184231 243 3009 569 9243 302018 72639 21 839 2188 254557 3748
internal_value=0 0.10938 -0.000634366 0.0627259 0.528235 0.596294 1.27854 3.11594 0.0660895 0.0431814 0.695037 0.449777 2.00548 0.206323 0.392585 -0.00138853 0.0101283 0.121373 -0.00193068 0.458156 0.117921 0.4036 0.00597124 -0.00269012 -0.00127463 0.0133406 0.0323831 0.15105 -0.00653437 -0.0131643
internal_weight=0 13509 2.32928e+06 27399 1104 1103 195 47 12406 26295 148 908 50 3391 776 2.30188e+06 233734 22859 210875 1054 8740 879 17555 2.06815e+06 1.51158e+06 9015 5246 2615 556575 3769
internal_count=2342793 13509 2329284 27399 1104 1103 195 47 12406 26295 148 908 50 3391 776 2301885 233734 22859 210875 1054 8740 879 17555 2068151 1511576 9015 5246 2615 556575 3769
is_linear=0
shrinkage=0.1


Tree=20
num_leaves=29
num_cat=0
split_feature=7 3 3 7 2 3 3 7 7 7 4 7 4 3 7 7 3 3 3 3 7 3 7 3 7 7 0 3
split_gain=13972.8 28845.4 10760.7 10690.1 18084.6 10154.5 9106.98 20305 10266.6 4853.58 4381.16 3539.8 5607.71 2678.12 2224.67 1887.57 28768.5 18280.8 10855.2 1209.17 1147.6 1065.04 17854.3 699.452 465.739 406.152 1248.32 208.589
threshold=1.4820878537608391 0.58496917546014326 -0.34137038259745339 6.4729712211150856 7817.5000000000009 2.1422789683452859 -0.51141396652460169 -0.18863129788813932 -0.15183943367618827 -0.20111444019459315 19.500000000000004 6.4729712211150856 18.500000000000004 -0.058012648700128948 -0.17399437398655793 -0.010878384200465949 -0.30178713061808859 0.1214376015719253 -0.44595225184068144 -0.5128527157907985 -0.20375172378046372 -0.46909843976690108 -0.17685143120458433 -0.19697371266483218 1.991698952003887 6.4729712211150856 9.5000000000000018 4.1126137727436891
decision_type=2 2 2 2 2 2 2 2 2 2 2 2 2 2 2 2 2 2 2 2 2 2 2 2 2 2 2 2
left_child=6 2 -2 13 -5 11 7 9 14 20 -10 24 -13 -4 -9 21 18 -18 -17 -11 -1 22 -8 -23 -3 27 -27 -7
right_child=1 5 3 4 -6 25 15 8 10 19 -12 12 -14 -15 -16 16 17 -19 -20 -21 -22 23 -24 -25 -26 26 -28 -29
leaf_value=-0.021587675624133537 2.107292960418595 0.080426942154593853 0.56767224932309268 0.56711313490472415 2.7649863455404944 0.049439876629560259 0.0002454327195493548 0.29073153952757519 2.8156374714591288 0.60411111547591845 1.0336341393960489 0.62588273407096051 0.097058949107304227 0.2564771690568019 0.58496226170741095 1.8083804389704827 0.048995048183601363 -0.0059528269336062032 0.26256163617220035 0.095442542420309334 0.029620176557595374 -0.0023332651673694522 0.3501052859127719 -0.0070359219362382628 0.13431460987498792 -0.45770370202759908 0.059640565259765514 -0.0085951230797044875
leaf_weight=8312 36 2697 322 184 47 644 42110 1200 22 47 37 363 448 1959 327 46 70507 428613 3651 8211 9243 1324999 1511 415448 3957 48 1647 16157
leaf_count=8312 36 2697 322 184 47 644 42110 1200 22 47 37 363 448 1959 327 46 70507 428613 3651 8211 9243 1324999 1511 415448 3957 48 1647 16157
internal_value=0 0.0695813 0.390657 0.366056 1.0143 0.0380686 -0.000857152 0.0564533 0.403751 0.0351147 1.69811 0.136513 0.333758 0.300407 0.35374 -0.00154378 0.00386787 0.00180925 0.281796 0.0983376 0.00537411 -0.00306899 0.0123643 -0.0034558 0.112473 -0.00166381 0.0449901 -0.00637058
internal_weight=0 28509 2548 2512 231 25961 2.31428e+06 27399 1586 25813 59 7465 811 2281 1527 2.28688e+06 502817 499120 3697 8258 17555 1.78407e+06 43621 1.74045e+06 6654 18496 1695 16801
internal_count=2342793 28509 2548 2512 231 25961 2314284 27399 1586 25813 59 7465 811 2281 1527 2286885 502817 499120 3697 8258 17555 1784068 43621 1740447 6654 18496 1695 16801
is_linear=0
shrinkage=0.1


Tree=21
num_leaves=28
num_cat=0
split_feature=7 3 3 3 7 7 7 4 3 7 7 3 3 7 3 3 3 0 7 0 3 7 7 3 3 3 3
split_gain=11340.5 23463.3 8980.41 7391.12 28130.1 15401.6 7002.46 8571.26 4947.73 3310.18 3111.42 2120.47 2045.49 1810.76 25361.4 13771.9 10317.9 962.46 850.46 2208.57 805.871 22201 307.892 765.056 172.418 163.69 95.4465
threshold=1.6397095027430344 0.98466855871126591 -0.20702775061162257 -0.50012596691071431 -0.11866592254405153 -0.19112353087678699 6.4729712211150856 23.500000000000004 2.3791822422931506 -0.20023534566596962 -0.17849445887858167 0.11614092483002436 -0.34176835694281477 0.094035394129049418 -0.26649910720975173 0.4687124272990571 -0.43438060505700932 14.500000000000002 6.4729712211150856 7.5000000000000009 -0.27265830289650878 -0.13099522330799626 3.8462367695906781 11.638236284556084 -0.023019849897078348 1.1056643371366361 5.2703573228859755
decision_type=2 2 2 2 2 2 2 2 2 2 2 2 2 2 2 2 2 2 2 2 2 2 2 2 2 2 2
left_child=3 2 12 4 5 9 11 -8 18 -1 -7 -4 -2 20 16 -16 -15 -14 25 -20 21 -5 26 -24 -22 -3 -10
right_child=1 8 6 13 -6 10 7 -9 22 -11 -12 -13 17 14 15 -17 -18 -19 19 -21 24 -23 23 -25 -26 -27 -28
leaf_value=0.0055017027121684412 2.0368419253400396 0.12761426358847217 0.35124465698793372 -0.0040604860251195231 3.7968546390533451 0.2162467244858656 0.87079892611451537 0.010215359542607553 0.03528743993975525 0.084466149032653801 0.46775955733436292 0.16868711295195471 1.5066503095626833 1.9637335940769742 0.048937784258994747 -0.0076150928122067493 0.23931152980432949 0.61107801198959355 -0.62169313308383733 0.2920253579607836 -0.0037360345397805801 0.056149287943831776 0.076398044685048183 -0.019325423561244375 -0.0067679993285534997 0.085623719208769572 -0.0096303316948616324
leaf_weight=21615 28 1627 853 1149415 20 1719 372 168 492 7037 689 2504 20 35 52407 241467 4023 30 28 479 457309 64687 1591 1757 317965 2162 12294
leaf_count=21615 28 1627 853 1149415 20 1719 372 168 492 7037 689 2504 20 35 52407 241467 4023 30 28 479 457309 64687 1591 1757 317965 2162 12294
internal_value=0 0.0678113 0.290102 -0.00071383 0.0477239 0.0453098 0.268837 0.603062 0.024561 0.0248956 0.288212 0.215074 1.35252 -0.001372 0.00589856 0.00247007 0.254185 0.969307 0.11993 0.241564 -0.00246085 -0.000852527 -0.000832984 0.0261632 -0.00497954 0.103654 -0.00790191
internal_weight=0 24405 3975 2.31839e+06 31080 31060 3897 540 20430 28652 2408 3357 78 2.28731e+06 297932 293874 4058 50 4296 507 1.98938e+06 1.2141e+06 16134 3348 775274 3789 12786
internal_count=2342793 24405 3975 2318388 31080 31060 3897 540 20430 28652 2408 3357 78 2287308 297932 293874 4058 50 4296 507 1989376 1214102 16134 3348 775274 3789 12786
is_linear=0
shrinkage=0.1


Tree=22
num_leaves=27
num_cat=0
split_feature=7 3 7 4 2 3 3 3 7 7 7 7 4 5 3 7 3 3 7 7 2 3 3 7 3 1
split_gain=9432.86 20681.1 10394.8 14368.4 29099 10053.6 7760.14 6116.94 100955 18322.1 17865.2 2591.96 6406.18 2530.97 1838.15 1377.13 30360.6 14648 6327.31 918.971 510.725 670.1 469.047 313.953 312.233 101.158
threshold=1.3458897384411987 0.20819022014296218 6.4729712211150856 23.500000000000004 7817.5000000000009 -0.34181659625750055 1.3318063847859292 -0.48643564943028184 -0.088852310700313838 -0.13254858334007402 -0.18637817861127731 6.4729712211150856 16.500000000000004 9.5000000000000018 -0.065711731016332139 -0.12576197357910046 -0.38514756058720856 -0.25493759068214333 0.023713985500869054 1.991698952003887 21683.500000000004 -0.45103764038468147 4.1126137727436891 6.4729712211150856 -0.38458894932426491 12.500000000000002
decision_type=2 2 2 2 2 2 2 2 2 2 2 2 2 2 2 2 2 2 2 2 2 2 2 2 2 2
left_child=7 2 5 4 -4 -2 11 8 9 10 -1 19 -13 -5 -7 20 18 -18 -17 -3 24 -22 25 -24 -9 -8
right_child=1 6 3 13 -6 14 22 15 -10 -11 -12 12 -14 -15 -16 16 17 -19 -20 -21 21 -23 23 -25 -26 -27
leaf_value=0.0211320605170691 2.5351342281699183 0.06113201684489581 1.0029803961070616 -0.68085181630890945 5.3495473730564118 0.47837236451343473 0.09687449756218533 -0.0021524576179913005 7.1405754137039184 -2.6196688376940216 0.33398341125358799 -0.12620780936794226 0.47254041709085376 0.61883646768908351 0.2269526911481303 0.24307078032704005 0.045159967950735146 -0.0028397141324865982 0.6615494179784227 0.12958757208329441 0.043978022206867584 -0.0034780968704001118 -0.0075775888618088184 0.037945744878330481 -0.0054426175947403163 0.036981122691759627
leaf_weight=38962 20 3881 67 29 20 369 339 512309 20 26 1915 262 562 31 1372 3218 67830 1014065 407 3964 5151 7045 17558 1658 660036 1677
leaf_count=38962 20 3881 67 29 20 369 339 512309 20 26 1915 262 562 31 1372 3218 67830 1014065 407 3964 5151 7045 17558 1658 660036 1677
internal_value=0 0.0540852 0.373287 1.18116 2.00219 0.30585 0.0337167 -0.000744443 0.0375736 0.0341005 0.0357885 0.113443 0.282162 -0.0093462 0.28024 -0.00143521 0.0011377 0.000169652 0.290056 0.0957219 -0.00379305 0.0165651 0.00116449 -0.00364973 -0.00400483 0.0470525
internal_weight=0 31809 1908 147 87 1761 29901 2.31098e+06 40923 40903 40877 8669 824 60 1741 2.27006e+06 1.08552e+06 1.0819e+06 3625 7845 1.18454e+06 12196 21232 19216 1.17234e+06 2016
internal_count=2342793 31809 1908 147 87 1761 29901 2310984 40923 40903 40877 8669 824 60 1741 2270061 1085520 1081895 3625 7845 1184541 12196 21232 19216 1172345 2016
is_linear=0
shrinkage=0.1


Tree=23
num_leaves=31
num_cat=0
split_feature=7 3 7 4 2 3 3 3 7 7 7 1 7 1 2 7 3 7 3 3 7 7 3 7 7 3 3 7 7 7
split_gain=7640.62 16751.7 8419.83 11638.4 23570.2 8143.42 6285.71 5153.49 11483.7 4727.45 4724.31 2885.61 2099.49 5237.43 2074.38 1708.35 1663.46 1228.54 17968.8 11949.6 996.917 744.366 697.776 20134 547.31 493.213 379.928 374.08 254.302 94.1105
threshold=1.3458897384411987 0.20819022014296218 6.4729712211150856 23.500000000000004 7817.5000000000009 -0.34181659625750055 1.3318063847859292 -0.51141396652460169 -0.18044165325948272 -0.14852700549233486 -0.19759806208009914 26.500000000000004 6.4729712211150856 12.500000000000002 1872.0000000000002 -0.20375172378046372 -0.19127857918432736 0.075009151246050815 0.35291395262849867 -0.33379295106177209 -0.16436828889813052 1.991698952003887 -0.4328176512643172 -0.17868873876940741 -0.14309420130544162 1.2213923824088593 4.1126137727436891 -0.19197185709690867 6.4729712211150856 1.991698952003887
decision_type=2 2 2 2 2 2 2 2 2 2 2 2 2 2 2 2 2 2 2 2 2 2 2 2 2 2 2 2 2 2
left_child=7 2 5 4 -4 -2 12 8 10 20 15 -11 21 -14 -5 -1 -7 22 19 -19 -10 -3 23 -9 -24 -20 29 -12 -28 -8
right_child=1 6 3 14 -6 16 26 17 9 11 27 -13 13 -15 -16 -17 -18 18 25 -21 -22 -23 24 -25 -26 -27 28 -29 -30 -31
leaf_value=-0.022092285338534658 2.281620780825615 0.055018815993428206 0.90268236033952065 0.62017444201878147 4.8145926713943483 0.68909434245293399 0.022112515106367112 -0.0056499136045777016 0.31240674745428965 2.2656402269999187 0.10731267476292668 0.72644090981319032 0.78619397005300651 0.1345257815466239 -0.55842441227287054 0.034902037266956391 0.23034608630145303 0.41897308155978852 -0.0050374830923420738 0.048006619934940854 0.64380929514213847 0.11662881446233551 -0.0044868026313902689 0.16540568559309066 -0.0010248365004891945 -0.017950470690486622 -0.0068198298618514855 0.1698610052994122 0.034151170293118614 0.065417384601795289
leaf_weight=8312 20 3881 67 28 20 83 1074 105740 569 21 2488 29 151 673 32 14319 1658 881 235917 60368 108 3964 842779 7360 996721 33819 17558 1553 1658 942
leaf_count=8312 20 3881 67 28 20 83 1074 105740 569 21 2488 29 151 673 32 14319 1658 881 235917 60368 108 3964 842779 7360 996721 33819 17558 1553 1658 942
internal_value=0 0.0486767 0.335958 1.06304 1.80197 0.275265 0.0303451 -0.000669998 0.0424415 0.434575 0.0317531 1.3729 0.102099 0.253946 -0.00841161 0.0139689 0.252216 -0.00118726 0.00444638 0.0533426 0.365275 0.0861497 -0.00214222 0.00548156 -0.00261096 -0.00665649 0.00104804 0.131351 -0.00328476 0.0423472
internal_weight=0 31809 1908 147 87 1761 29901 2.31098e+06 27399 727 26672 50 8669 824 60 22631 1741 2.28358e+06 330985 61249 677 7845 1.9526e+06 113100 1.8395e+06 269736 21232 4041 19216 2016
internal_count=2342793 31809 1908 147 87 1761 29901 2310984 27399 727 26672 50 8669 824 60 22631 1741 2283585 330985 61249 677 7845 1952600 113100 1839500 269736 21232 4041 19216 2016
is_linear=0
shrinkage=0.1


Tree=24
num_leaves=28
num_cat=0
split_feature=7 3 1 3 3 7 7 2 5 7 2 4 4 7 3 3 3 7 3 7 4 2 7 7 7 0 3
split_gain=6413.23 14961.7 10627.2 4379.74 4118.51 9306.04 3992.78 3902.61 3883.05 3711.12 3516.82 12414.2 2938.14 2234.65 9850.99 3877.38 3025.76 1383.77 919.719 11947 675.081 1840.33 609.138 543.061 342.275 340.11 231.775
threshold=2.9940425335386531 0.38366816959975092 54.500000000000007 -0.19127857918432736 -0.51141396652460169 -0.18009001544803332 -0.19759806208009914 3850.0000000000005 6.5000000000000009 -0.15183943367618827 3633.5000000000005 18.500000000000004 19.500000000000004 0.61185987255302698 -0.13765575708709682 -0.40021269853343505 0.86080157628154275 -0.20375172378046372 0.40725554051330221 0.075009151246050815 26.500000000000004 16438.500000000004 -0.16436828889813052 3.8462367695906781 -0.19256085043108648 8.5000000000000018 1.2213923824088593
decision_type=2 2 2 2 2 2 2 2 2 2 2 2 2 2 2 2 2 2 2 2 2 2 2 2 2 2 2
left_child=4 2 3 -2 5 6 17 10 -5 22 23 -12 -11 18 15 -15 -16 -1 19 -6 25 -22 -7 -3 -8 -9 -20
right_child=1 7 -4 8 13 9 24 20 -10 12 11 -13 -14 14 16 -17 -18 -19 26 -21 21 -23 -24 -25 -26 -27 -28
leaf_value=-0.019883057070650426 1.7543454707910617 0.1737619869006069 2.2605006519874391 0.70645457453469274 -0.0019279963848377699 0.29005473262036058 0.093544915749908142 -0.096496164611416746 0.21185494864259358 2.0809011004187847 0.83878748988472884 0.00023704775116022896 0.62158224518234673 1.7232549497059413 0.062405742387463804 0.34440893347584545 0.0029685072157649046 0.031411834083780059 -0.0061577692090104656 0.04432752916101311 0.049265182538124314 0.59162531853581857 0.56142024801235013 0.0069380798603634582 0.15155368521689083 0.0046989717785775814 -0.016693149571589749
leaf_weight=8312 24 276 33 241 1952600 503 2252 353 465 22 302 425 37 21 10512 707 46237 14319 214567 57482 1669 65 99 666 1855 5616 23133
leaf_count=8312 24 276 33 241 1952600 503 2252 353 465 22 302 425 37 21 10512 707 46237 14319 214567 57482 1669 65 99 666 1855 5616 23133
internal_value=0 0.0793752 0.505202 0.425853 -0.000344872 0.0381974 0.0290341 0.0447075 0.380691 0.40886 0.18334 0.348576 1.16574 -0.000802963 0.0186675 0.384183 0.0139785 0.0125721 -0.00130083 -0.000605234 0.0146703 0.0695959 0.334681 0.0558164 0.119746 -0.0012856 -0.00718307
internal_weight=0 10135 763 730 2.33266e+06 27399 26738 9372 706 661 1669 727 59 2.30526e+06 57477 728 56749 22631 2.24778e+06 2.01008e+06 7703 1734 602 942 4107 5969 237700
internal_count=2342793 10135 763 730 2332658 27399 26738 9372 706 661 1669 727 59 2305259 57477 728 56749 22631 2247782 2010082 7703 1734 602 942 4107 5969 237700
is_linear=0
shrinkage=0.1


Tree=25
num_leaves=27
num_cat=0
split_feature=7 3 7 1 5 3 3 3 7 7 7 4 7 7 4 7 3 3 3 3 7 3 3 7 3 1
split_gain=5309.65 11692.3 4446.42 10964.5 13331.8 4855.96 3930.63 3517.87 78518.1 19116.1 12042.4 2274.22 1414.9 1151.71 5267.03 995.88 14573.1 5785.42 5522.05 646.759 15716.9 258.487 201.382 190.295 131.842 112.066
threshold=1.4820878537608391 0.58496917546014326 6.4729712211150856 54.500000000000007 4.5000000000000009 -0.29601577902062937 1.3318063847859292 -0.48643564943028184 -0.092352865113292673 -0.13254858334007402 -0.19499682136990218 12.500000000000002 1.991698952003887 6.4729712211150856 18.500000000000004 0.14683117423459149 -0.13765575708709682 -0.44309696681014304 0.64242219913595411 -0.28361055688085474 -0.13447380035775947 4.1126137727436891 0.92679295863965305 6.4729712211150856 -0.052336489350157944 2.5000000000000004
decision_type=2 2 2 2 2 2 2 2 2 2 2 2 2 2 2 2 2 2 2 2 2 2 2 2 2 2
left_child=7 2 5 4 -4 11 13 8 9 10 -1 -2 -7 22 -15 19 17 -17 -18 20 -9 25 -3 -23 -21 -8
right_child=1 6 3 -5 -6 12 21 15 -10 -11 -12 -13 -14 14 -16 16 18 -19 -20 24 -22 23 -24 -25 -26 -27
leaf_value=0.0058640021177252125 0.58643152243815944 0.115933370668019 2.1878440751748927 2.3528765136545355 0.013191076336484968 0.078679560443593408 -0.15778811210124144 -0.0029992330841902993 6.1416621015185404 -2.7389840660095217 0.16592295568468696 1.9855960777827673 0.24349945439657708 0.49913484735425406 -0.036753935498786985 1.7911475116556344 0.03348997266519331 0.16596777706759075 -0.0066613760314843604 -0.0026613412955338606 0.047131937881782493 -0.0063177130671739469 0.066751871386057149 0.029256375488770095 -0.0051533884487143288 0.040430954593389253
leaf_weight=35458 26 1015 34 33 165 810 29 1137030 21 25 5419 21 1459 338 401 22 42844 5042 170826 447523 66179 16157 4632 1658 403895 1731
leaf_count=35458 26 1015 34 33 165 810 29 1137030 21 25 5419 21 1459 338 401 22 42844 5042 170826 447523 66179 16157 4632 1658 403895 1731
internal_value=0 0.0428927 0.247311 0.66469 0.38474 0.205501 0.0228296 -0.000528383 0.0285307 0.0253921 0.0270828 1.21159 0.184661 0.0909546 0.208348 -0.00105148 0.00536324 0.173028 0.00138956 -0.00173438 -0.000241914 0.000604951 0.0755918 -0.00300692 -0.00384352 0.0371648
internal_weight=0 28509 2548 232 199 2316 25961 2.31428e+06 40923 40902 40877 47 2269 6386 739 2.27336e+06 218734 5064 213670 2.05463e+06 1.20321e+06 19575 5647 17815 851418 1760
internal_count=2342793 28509 2548 232 199 2316 25961 2314284 40923 40902 40877 47 2269 6386 739 2273361 218734 5064 213670 2054627 1203209 19575 5647 17815 851418 1760
is_linear=0
shrinkage=0.1


Tree=26
num_leaves=28
num_cat=0
split_feature=7 3 2 3 3 7 7 2 2 4 4 7 7 5 7 3 3 3 7 7 3 7 4 2 7 7 3
split_gain=4353.38 10538.7 8183.76 3523.21 2856.13 6789.63 3229.53 2647.23 2976.84 9529.15 2428.86 14148.4 4253.86 2403.84 1535.51 7049.63 3200.72 1671.62 1063.33 646.466 643.618 8299.72 559.629 1480.96 413.771 331.285 164.249
threshold=2.9940425335386531 0.38366816959975092 19089.500000000004 -0.19127857918432736 -0.51141396652460169 -0.17639430204970011 -0.201817715817492 3850.0000000000005 3633.5000000000005 18.500000000000004 7.5000000000000009 -0.13447380035775947 -0.16091784287328328 6.5000000000000009 0.61185987255302698 -0.086498928751379836 -0.40021269853343505 2.1422789683452859 -0.19607722854558049 6.4729712211150856 0.4687124272990571 0.094035394129049418 26.500000000000004 16438.500000000004 6.4729712211150856 -0.20375172378046372 1.2213923824088593
decision_type=2 2 2 2 2 2 2 2 2 2 2 2 2 2 2 2 2 2 2 2 2 2 2 2 2 2 2
left_child=4 2 3 -2 5 6 25 8 19 -10 12 -12 -7 -5 20 16 -16 -17 -8 -3 21 -6 24 -24 -9 -1 -22
right_child=1 7 -4 13 14 10 18 22 9 -11 11 -13 -14 -15 15 17 -18 -19 -20 -21 26 -23 23 -25 -26 -27 -28
leaf_value=-0.018481150229351238 1.5846638051711996 0.082675599617352158 2.323474944721569 0.58235076494003479 -0.0015501834892188767 0.29562620416931484 0.044515198158265795 0.011813384759494075 0.73198991788286005 -0.0026870235467658325 0.3777388072380653 2.9981248497962953 -1.3135065948963165 0.19604515445257542 1.4733777593998683 0.023779862552554494 0.22841924627382015 -0.011712788735510774 0.10956737375502146 -0.10542603467380809 -0.005411281658180455 0.039771932425914841 0.043333831618870888 0.52986532401580078 -0.049872024207655991 0.011127551919423814 -0.014357697553261141
leaf_weight=8312 23 694 22 244 1993057 92 8045 4539 302 425 325 22 20 474 21 34745 1242 21469 3654 248 181770 49822 1669 65 1430 6929 23133
leaf_count=8312 23 694 22 244 1993057 92 8045 4539 302 425 325 22 20 474 21 34745 1242 21469 3654 248 181770 49822 1669 65 1430 6929 23133
internal_value=0 0.0653974 0.422782 0.366351 -0.00028414 0.0318122 0.0253145 0.0363017 0.150479 0.302502 0.413184 0.543873 0.00828106 0.327324 -0.000665619 0.0154741 0.249119 0.0102247 0.0648332 0.0331542 -0.00107832 -0.000542414 0.0115629 0.0615717 -0.00296466 -0.00502018 -0.00642131
internal_weight=0 10135 763 741 2.33266e+06 27399 26940 9372 1669 727 459 347 112 718 2.30526e+06 57477 1263 56214 11699 942 2.24778e+06 2.04288e+06 7703 1734 5969 15241 204903
internal_count=2342793 10135 763 741 2332658 27399 26940 9372 1669 727 459 347 112 718 2305259 57477 1263 56214 11699 942 2247782 2042879 7703 1734 5969 15241 204903
is_linear=0
shrinkage=0.1


Tree=27
num_leaves=25
num_cat=0
split_feature=7 3 3 3 7 4 3 7 7 7 7 4 7 7 3 7 3 3 2 7 3 7 7 1
split_gain=3749.34 8497.56 4203.3 3813.75 3887.27 12675.5 2418.53 60386 16250.6 8939.39 2231.08 6986.76 766.441 660.374 30824.4 8540.76 4192.15 606.066 300.898 432.352 175.641 151.19 147.465 91.1419
threshold=1.1722070324210523 0.0055378243398611004 1.3318063847859292 -0.3591417460921375 6.4729712211150856 13.500000000000002 -0.48643564943028184 -0.092352865113292673 -0.13254858334007402 -0.18532590246051497 6.4729712211150856 16.500000000000004 1.991698952003887 -0.14324804284795067 -0.35620397183365143 -0.06145620881029084 -0.31256282871103797 -0.19127857918432736 21683.500000000004 -0.17832127725644281 2.9551596584889377 6.4729712211150856 -0.18718079191591055 12.500000000000002
decision_type=2 2 2 2 2 2 2 2 2 2 2 2 2 2 2 2 2 2 2 2 2 2 2 2
left_child=6 3 10 -2 17 -6 7 8 9 -1 12 -12 -3 18 15 -15 -16 -5 22 -20 23 -22 -8 -4
right_child=1 2 20 4 5 -7 13 -9 -10 -11 11 -13 -14 14 16 -17 -18 -19 19 -21 21 -23 -24 -25
leaf_value=0.012663767642659293 1.69364443898201 0.036901979993243211 0.074953213531716495 0.46872903246964726 3.0869001448154449 -0.26167405408162336 -0.0075850169961038374 5.3846125184070495 -2.5279301834106445 0.24689962476842542 -0.17039248976032728 0.41534998652895672 0.091880462206840416 0.10903825218638397 0.037661847795954655 0.34224119920522794 -0.0020796238326368315 0.21980416682100051 -0.0089524270530603588 0.032947969921289698 -0.0053604263620958218 0.025994682977656405 -0.0027866059732489339 0.018350107389155424
leaf_weight=39177 20 5771 341 112 20 26 69197 21 25 1700 303 621 4523 15783 27104 1744 1282292 772 4434 5539 19430 1670 860452 1716
leaf_count=39177 20 5771 341 112 20 26 69197 21 25 1700 303 621 4523 15783 27104 1744 1282292 772 4434 5539 19430 1670 860452 1716
internal_value=0 0.0323323 0.0241788 0.327362 0.29798 1.19423 -0.000494975 0.0235989 0.0208464 0.0224052 0.0744197 0.223272 0.0610585 -0.000929995 0.000506375 0.132243 -0.00125699 0.251342 -0.00295842 0.014319 -0.000159526 -0.00287877 -0.00314377 0.0277335
internal_weight=0 35325 34375 950 930 46 2.30747e+06 40923 40902 40877 11218 924 10294 2.26654e+06 1.32692e+06 17527 1.3094e+06 884 939622 9973 23157 21100 929649 2057
internal_count=2342793 35325 34375 950 930 46 2307468 40923 40902 40877 11218 924 10294 2266545 1326923 17527 1309396 884 939622 9973 23157 21100 929649 2057
is_linear=0
shrinkage=0.1


Tree=28
num_leaves=31
num_cat=0
split_feature=7 3 7 2 1 1 3 3 3 7 4 4 7 4 7 7 3 4 7 3 3 3 3 7 7 1 2 4 3 3
split_gain=3076.98 7046.73 2923.66 8661.19 16000.3 5982.36 2901.35 2153.14 1983.6 4944.05 6706.92 9668.66 3011.93 1657.8 1046.55 908.773 865.739 3416.25 685.833 12712.4 6898.43 5583.69 651.396 26835.4 558.544 448.816 151.878 410.636 143.923 70.5413
threshold=1.4820878537608391 0.58496917546014326 6.4729712211150856 7817.5000000000009 24.500000000000004 13.500000000000002 -0.29251360478144894 1.3318063847859292 -0.51141396652460169 -0.16265932913448636 7.5000000000000009 19.500000000000004 -0.19607722854558049 15.500000000000002 -0.201817715817492 1.991698952003887 1.2213923824088593 19.500000000000004 -0.0114497956440712 -0.30704328633573458 0.1214376015719253 -0.42797538886584707 -0.35335302834142607 -0.15565646211947151 -0.18044165325948272 5.5000000000000009 7698.5000000000009 29.500000000000004 -0.19127857918432736 4.1126137727436891
decision_type=2 2 2 2 2 2 2 2 2 2 2 2 2 2 2 2 2 2 2 2 2 2 2 2 2 2 2 2 2 2
left_child=8 2 6 5 -5 -4 13 16 9 12 -11 -12 14 -2 -1 -8 25 -18 22 21 -21 -20 23 -10 -14 -3 27 -9 -24 -28
right_child=1 7 3 4 -6 -7 15 26 18 10 11 -13 24 -15 -16 -17 17 -19 19 20 -22 -23 28 -25 -26 -27 29 -29 -30 -31
leaf_value=-0.0057845357110550381 0.43012336961193276 -0.086936824244855382 1.4604427323676648 -0.025130172729492192 3.629556649664174 -0.043906065118254019 0.056153534737856531 0.019665479386601525 -0.0030258001831624487 -0.84848043346405033 2.5329006445818933 0.40506604056299472 0.088103585298147283 1.622166908979416 0.038797302106424306 0.18829751185781751 0.57435109037171495 -0.09517823001131033 0.76604842960834507 0.030150558564489893 -0.0035883658552792251 0.16192799164318125 -0.0022256969231432603 0.10802296177754585 0.1933861876258979 0.064300450021366196 0.041303627387895135 -0.07938440394492402 -0.0045593111948004248 -0.0068288658164633717
leaf_weight=15241 28 203 32 25 23 152 809 6172 610076 25 29 81 3386 20 8045 1459 149 156 160 70573 428936 3494 739957 22566 592 5878 312 449 411123 12642
leaf_count=15241 28 203 32 25 23 152 809 6172 610076 25 29 81 3386 20 8045 1459 149 156 160 70573 428936 3494 739957 22566 592 5878 312 449 411123 12642
internal_value=0 0.0326522 0.191347 0.529793 1.72607 0.21772 0.157444 0.0170767 -0.000402233 0.0263447 0.630018 0.966041 0.0233555 0.926808 0.00961789 0.141161 0.0674977 0.231903 -0.000722686 0.00253791 0.00117843 0.188381 -0.00164245 0.000935249 0.103772 0.0592517 0.000627737 0.0129485 -0.00305918 -0.00566958
internal_weight=0 28509 2548 232 48 184 2316 25961 2.31428e+06 27399 135 110 27264 48 23286 2268 6386 305 2.28688e+06 503163 499509 3654 1.78372e+06 632642 3978 6081 19575 6621 1.15108e+06 12954
internal_count=2342793 28509 2548 232 48 184 2316 25961 2314284 27399 135 110 27264 48 23286 2268 6386 305 2286885 503163 499509 3654 1783722 632642 3978 6081 19575 6621 1151080 12954
is_linear=0
shrinkage=0.1


Tree=29
num_leaves=27
num_cat=0
split_feature=7 3 7 3 2 3 3 3 7 7 7 3 2 7 1 7 3 3 3 3 7 7 7 3 3 3
split_gain=2515.27 6180.98 4062.15 10584.9 10509.8 3343.28 1873.25 1706.44 67673.4 9861.04 2021.78 936.382 743.814 692.377 5431.59 559.331 8686.2 3772.99 2043.44 404.244 6780.53 361.418 134.471 600.845 20.56 6.2571
threshold=1.1722070324210523 0.20819022014296218 6.4729712211150856 0.17425965104716715 7676.5000000000009 -0.35620397183365143 2.3791822422931506 -0.47420698318190391 -0.03609081528138814 -0.19197185709690867 -0.16577484014392813 -0.05247477538537814 19733.500000000004 6.4729712211150856 5.5000000000000009 0.20019221212203847 -0.010477869300443199 -0.35620397183365143 0.81308807022130392 -0.058012648700128948 -0.064228872953569396 1.991698952003887 3.8462367695906781 11.638236284556084 0.15038119032548247 4.1126137727436891
decision_type=2 2 2 2 2 2 2 2 2 2 2 2 2 2 2 2 2 2 2 2 2 2 2 2 2 2
left_child=7 2 5 4 -4 -2 13 8 9 12 -11 -7 -1 21 -15 19 17 -17 -18 20 -9 -3 25 -24 -21 -8
right_child=1 6 3 -5 -6 11 22 15 -10 10 -12 -13 -14 14 -16 16 18 -19 -20 24 -22 -23 23 -25 -26 -27
leaf_value=-0.0098730768254236059 1.4047805073715391 0.024635047564328261 0.70232927634798248 2.1550071073544994 -1.7013152995835181 0.25815551398766912 0.0011779916568840018 -0.0017588431020145474 5.692245697407496 0.11731627162700833 0.30146709177532849 0.10171715080791302 0.014133032162045971 -1.292949741620284 0.17360970420127905 0.53658936206872265 0.021715439283812074 0.088721367326342046 -0.0057831267368068425 -0.003177278335406711 0.034653323197842166 0.061745619046687031 0.060611741799079147 -0.024218925290068374 -0.0044726840884980806 -0.0062367031516196315
leaf_weight=28971 21 6144 87 37 23 494 1221 1520584 21 5050 676 1697 23277 26 880 192 33314 9257 143116 245720 52921 4581 1591 1757 244369 16766
leaf_count=28971 21 6144 87 37 23 494 1221 1520584 21 5050 676 1697 23277 26 880 192 33314 9257 143116 245720 52921 4581 1591 1757 244369 16766
internal_value=0 0.0264821 0.182853 0.691889 0.199749 0.149025 0.0152924 -0.000405414 0.016531 0.0144751 0.139057 0.136989 0.000821882 0.0475775 0.131523 -0.000842063 0.00441195 0.0978219 -0.000590772 -0.00131532 -0.000534209 0.0404862 -0.00230821 0.0160934 -0.0038232 -0.00573338
internal_weight=0 35325 2359 147 110 2212 32966 2.30747e+06 57995 57974 5726 2191 52248 11631 906 2.24947e+06 185879 9449 176430 2.06359e+06 1.5735e+06 10725 21335 3348 490089 17987
internal_count=2342793 35325 2359 147 110 2212 32966 2307468 57995 57974 5726 2191 52248 11631 906 2249473 185879 9449 176430 2063594 1573505 10725 21335 3348 490089 17987
is_linear=0
shrinkage=0.1


Tree=30
num_leaves=26
num_cat=0
split_feature=7 3 1 2 2 3 3 7 7 7 3 1 1 4 7 3 3 3 2 3 7 0 4 3 7
split_gain=2075.75 5639.94 10386.5 7199.12 8545.5 6264.32 1351.42 54815.4 7987.45 1650.79 1239.36 1799.95 9065.03 2305.53 809.312 8337.17 5888.76 2102.37 602.489 376.662 12169.2 319.467 839.836 250.275 163.52
threshold=2.9940425335386531 0.21399919840580109 54.500000000000007 8861.5000000000018 7644.5000000000009 -0.05247477538537814 -0.47420698318190391 -0.03609081528138814 -0.19197185709690867 -0.17849445887858167 1.3318063847859292 12.500000000000002 11.000000000000002 16.500000000000004 0.20019221212203847 -0.010477869300443199 -0.44144573507175261 0.86080157628154275 19733.500000000004 -0.28396801020196111 -0.13606144507645354 13.500000000000002 29.500000000000004 9.9019103952301908 -0.065734761881101431
decision_type=2 2 2 2 2 2 2 2 2 2 2 2 2 2 2 2 2 2 2 2 2 2 2 2 2
left_child=6 2 3 4 -2 -5 7 8 18 -10 11 12 -3 -13 19 16 -16 -17 -1 20 -8 22 -12 -23 -21
right_child=1 10 -4 5 -6 -7 14 -9 9 -11 21 13 -14 -15 15 17 -18 -19 -20 24 -22 23 -24 -25 -26
leaf_value=-0.0088857690623652882 0.26225281172745213 -0.075255149512579944 2.3869912462309002 0.30296731569148877 1.8054561046453621 -1.7966104236245155 -0.0022990007074584671 5.123021125793457 0.09063960449349022 0.20868778505775382 0.062722561659351833 -0.088336989202470295 0.89619007173999654 0.13217860800832051 1.8083792591094969 0.022234487030969995 0.090750673230964585 -0.0040242077595774306 0.012719728615514734 -0.0037317688389393341 0.049125421020756517 0.051704025297766978 -0.17042306553353281 -0.014840749838890008 -0.0012705768089543749
leaf_weight=28971 449 264 24 27 39 30 934823 21 4052 1674 1695 758 151 1266 20 37478 10038 163533 23277 527661 48400 644 170 4618 552710
leaf_count=28971 449 264 24 27 39 30 934823 21 4052 1674 1695 758 151 1266 20 37478 10038 163533 23277 527661 48400 644 170 4618 552710
internal_value=0 0.0451579 0.351026 0.261369 0.385583 -0.802074 -0.000196203 0.0148779 0.0130276 0.125151 0.0269644 0.0884937 0.27821 0.0495942 -0.000580535 0.00531739 0.0941661 0.00087166 0.000739694 -0.00118379 0.000232411 0.0059079 0.0414707 -0.00669654 -0.00247264
internal_weight=0 10135 569 545 488 57 2.33266e+06 57995 57974 5726 9566 2439 415 2024 2.27466e+06 211069 10058 201011 52248 2.06359e+06 983223 7127 1865 5262 1.08037e+06
internal_count=2342793 10135 569 545 488 57 2332658 57995 57974 5726 9566 2439 415 2024 2274663 211069 10058 201011 52248 2063594 983223 7127 1865 5262 1080371
is_linear=0
shrinkage=0.1


Tree=31
num_leaves=28
num_cat=0
split_feature=7 3 7 1 0 0 3 3 3 7 7 7 1 4 4 3 3 7 3 7 3 5 7 3 3 7 7
split_gain=1812.68 4238.85 2763.7 9302.4 49955.8 16904.4 2749.9 1512.04 1125.84 14559 4257.89 3643.43 554.585 3951.58 531.222 466.467 432.473 992.189 2605.97 352.075 347.017 100.112 480.375 88.6334 26.3671 26.1568 16.3746
threshold=1.3458897384411987 0.20819022014296218 6.4729712211150856 24.500000000000004 14.500000000000002 9.5000000000000018 -0.34181659625750055 1.3318063847859292 -0.49751814956401891 -0.11685322962602988 -0.19759806208009914 -0.13447380035775947 12.500000000000002 2.5000000000000004 16.500000000000004 -0.065711731016332139 1.2213923824088593 0.32263601444683526 -0.27265830289650878 -0.20375172378046372 -0.35335302834142607 10.500000000000002 6.4729712211150856 4.1126137727436891 1.8544349781911598 0.99058610280743531 0.84993097822767394
decision_type=2 2 2 2 2 2 2 2 2 2 2 2 2 2 2 2 2 2 2 2 2 2 2 2 2 2 2
left_child=8 2 6 5 -5 -4 -2 12 9 10 19 -12 13 -3 -14 -8 17 20 -19 -1 -10 23 -23 -9 26 -26 -18
right_child=1 7 3 4 -6 -7 15 21 16 -11 11 -13 14 -15 -16 -17 24 18 -20 -21 -22 22 -24 -25 25 -27 -28
leaf_value=-0.018080144128883195 1.2993533968925477 0.956488912831992 1.1563274629910787 -0.22356278269148586 5.0146083147525786 -2.3645425677299499 0.21986504625983355 0.024020648193462897 0.0012618390604074723 2.6492285955519908 0.091143559996119783 -1.2605622506141663 0.0082602815396455708 0.073855829052794669 0.062338306701142571 0.093210849998812073 -0.010677335319389688 0.17561539224516831 0.01082694899395642 0.0060710685360305609 -0.0015254487884761737 -0.00022141851707904912 0.079066653706336337 -0.0066426373824492561 -0.018138442289158847 -0.0071844244571307864 -0.0016538035441762999
leaf_weight=8312 20 53 30 67 25 25 369 1013 623798 21 6752 20 3157 1181 4278 1372 19445 982 42177 22045 1573058 5760 881 13578 9282 2849 2243
leaf_count=8312 20 53 30 67 25 25 369 1013 623798 21 6752 20 3157 1181 4278 1372 19445 982 42177 22045 1573058 5760 881 13578 9282 2849 2243
internal_value=0 0.0237092 0.168221 0.584781 1.19985 -0.444068 0.133448 0.0144878 -0.00032634 0.0169415 0.0154527 0.0871515 0.0496803 0.111765 0.0393761 0.120055 -0.000608463 -0.000439008 0.0145764 -0.000541735 -0.000733997 0.000118761 0.010297 -0.0045138 -0.0118324 -0.0155659 -0.00974411
internal_weight=0 31809 1908 147 92 55 1761 29901 2.31098e+06 37150 37129 6772 8669 1234 7435 1741 2.27383e+06 2.24002e+06 43159 30357 2.19686e+06 21232 6641 14591 33819 12131 21688
internal_count=2342793 31809 1908 147 92 55 1761 29901 2310984 37150 37129 6772 8669 1234 7435 1741 2273834 2240015 43159 30357 2196856 21232 6641 14591 33819 12131 21688
is_linear=0
shrinkage=0.1


Tree=32
num_leaves=29
num_cat=0
split_feature=7 3 3 2 1 3 3 7 7 7 1 3 4 2 3 2 3 7 3 3 3 4 3 7 4 4 3 3
split_gain=1492 3385 1701.36 1327.46 9294 1054.02 944.659 57627.7 7511.76 1866.13 791.645 645.503 2842.28 594.944 731.948 691.199 579.741 431.562 13137.5 3530.84 3351.63 314.117 230.497 12533.7 97.685 763.055 85.3919 39.869
threshold=1.4820878537608391 0.58496917546014326 -0.16808511672990673 19089.500000000004 30.500000000000004 1.3318063847859292 -0.46134155798094778 -0.010878384200465949 -0.18747089311035633 -0.16265932913448636 12.500000000000002 1.2213923824088593 19.500000000000004 7580.5000000000009 -0.29251360478144894 4270.0000000000009 -0.51141396652460169 -0.080269710817362588 -0.32228208581448242 -0.10514728298529673 -0.41380171345323014 17.500000000000004 -0.35335302834142607 -0.15565646211947151 28.500000000000004 29.500000000000004 4.1126137727436891 -0.31199264001259291
decision_type=2 2 2 2 2 2 2 2 2 2 2 2 2 2 2 2 2 2 2 2 2 2 2 2 2 2 2 2
left_child=6 2 13 10 -5 11 7 8 16 -10 -4 21 -13 15 -15 -2 -1 22 20 -20 -19 -3 23 -8 26 -26 -7 -24
right_child=1 5 3 4 -6 24 17 -9 9 -11 -12 12 -14 14 -16 -17 -18 18 19 -21 -22 -23 27 -25 25 -27 -28 -29
leaf_value=0.011723752622820946 0.38587785468381997 0.065779624115482174 0.23947942094925675 -0.23968605290238676 2.1065681083798409 0.020523305485832762 -0.0028730423276942911 5.1281970379027459 0.095203262124212915 0.25405550318410597 0.07580263801593809 0.50153990991463604 -0.10916028728660865 0.61202543680415011 -0.044427429804844515 1.0387647570140901 -0.007356481447879243 0.43182672695609359 0.021185028949761257 -0.0020821274219047408 0.1265724115818613 0.019984490139754025 -0.0018728789124958204 0.077663489111119366 0.10054807586651407 -0.02555177671932243 -0.0041549973578166918 -0.0032432749926125538
leaf_weight=25954 34 2671 347 52 25 1537 565167 22 4837 873 1991 149 156 33 35 31 41209 383 71920 700283 5911 3410 359736 20008 761 1299 15978 517981
leaf_count=25954 34 2671 347 52 25 1537 565167 22 4837 873 1991 149 156 33 35 31 41209 383 71920 700283 5911 3410 359736 20008 761 1299 15978 517981
internal_value=0 0.0227371 0.132726 0.11355 0.522085 0.011942 -0.000280092 0.010923 0.00937815 0.11949 0.100095 0.0472197 0.189182 0.480928 0.274145 0.697255 1.67508e-05 -0.000644443 0.00125769 8.48855e-05 0.145148 0.0400994 -0.00165669 -0.000119379 0.000433262 0.0210317 -0.00198939 -0.00268161
internal_weight=0 28509 2548 2415 77 25961 2.31428e+06 72895 72873 5710 2338 6386 305 133 68 65 67163 2.24139e+06 778497 772203 6294 6081 1.46289e+06 585175 19575 2060 17515 877717
internal_count=2342793 28509 2548 2415 77 25961 2314284 72895 72873 5710 2338 6386 305 133 68 65 67163 2241389 778497 772203 6294 6081 1462892 585175 19575 2060 17515 877717
is_linear=0
shrinkage=0.1


Tree=33
num_leaves=22
num_cat=0
split_feature=7 0 3 5 4 3 3 3 7 7 7 7 3 3 3 3 3 7 3 7 1
split_gain=1309.94 5917.88 6426.7 13327.5 12698.8 3877.53 5573.39 794.792 42431.1 11439.8 3254.63 733.604 3029.07 754.614 679.873 573.074 563.006 297.475 9995.11 44.159 2.45927
threshold=6.4729712211150856 4.5000000000000009 0.21399919840580109 4.5000000000000009 9.5000000000000018 0.34792118356851004 0.38366816959975092 -0.4328176512643172 0.14683117423459149 -0.17868873876940741 -0.10975542040192364 0.61185987255302698 0.030699450829523654 -0.19697371266483218 1.2213923824088593 0.63851481465422399 -0.51141396652460169 -0.14309420130544162 -0.35620397183365143 -0.15565646211947151 26.500000000000004
decision_type=2 2 2 2 2 2 2 2 2 2 2 2 2 2 2 2 2 2 2 2 2
left_child=7 15 3 -3 -5 -4 -7 8 9 16 -11 17 13 -13 -14 -2 -1 19 -19 -9 -17
right_child=1 2 5 4 -6 6 -8 11 -10 10 -12 12 14 -15 -16 20 -18 18 -20 -21 -22
leaf_value=0.012279718279019526 -1.2263835245600114 3.1561155772209171 -1.2347777279822723 1.7537003991007805 -0.49797882348743844 1.6918561410336268 0.055919816864854657 -0.002927794512647755 3.4399069872167374 0.10929455736537688 0.42820442626698912 0.2344398320535607 0.015773241286595876 0.091404648754731754 -0.0051257672704468002 -0.60113142877817161 -0.0039498804278024552 0.077167855467580704 -0.00091538441741216862 -0.0014550307398726947 -0.65012857176008687
leaf_weight=26790 26 20 23 40 67 21 2500 498779 36 7641 334 446 31770 2132 30519 20 105740 16607 1275261 344000 21
leaf_count=26790 26 20 23 40 67 21 2500 498779 36 7641 334 446 31770 2132 30519 20 105740 16607 1275261 344000 21
internal_value=0 0.0691282 0.0924127 0.786659 0.34377 0.057755 0.0695472 -8.0884e-05 0.00720992 0.0063304 0.122651 -0.00054674 0.00992982 0.11615 0.0055336 -0.859124 -0.000669182 -0.000865099 8.83779e-05 -0.00232665 -0.626228
internal_weight=0 2738 2671 127 107 2544 2521 2.34006e+06 140541 140505 7975 2.19951e+06 64867 2578 62289 67 132530 2.13465e+06 1.29187e+06 842779 41
internal_count=2342793 2738 2671 127 107 2544 2521 2340055 140541 140505 7975 2199514 64867 2578 62289 67 132530 2134647 1291868 842779 41
is_linear=0
shrinkage=0.1


Tree=34
num_leaves=26
num_cat=0
split_feature=7 3 1 0 2 7 2 2 4 3 7 7 7 7 0 7 0 7 3 3 3 3 3 7 3
split_gain=1120.39 3139.62 4467.5 2322.82 18437.8 4772.82 994.468 2073.86 7792.46 659.554 34603.7 4730.97 976.522 621.027 589.562 3013.09 714.065 487.109 5602.49 2220.95 2105.05 334.725 252.21 4160.03 16.5435
threshold=2.9940425335386531 0.38366816959975092 54.500000000000007 15.500000000000002 7817.5000000000009 6.4729712211150856 3850.0000000000005 3633.5000000000005 18.500000000000004 -0.47420698318190391 -0.03609081528138814 -0.19197185709690867 -0.16577484014392813 6.4729712211150856 8.5000000000000018 6.4729712211150856 10.500000000000002 0.20019221212203847 -0.16778120904799437 0.81308807022130392 -0.44144573507175261 -0.51141396652460169 -0.057433776925057793 -0.064228872953569396 0.15038119032548247
decision_type=2 2 2 2 2 2 2 2 2 2 2 2 2 2 2 2 2 2 2 2 2 2 2 2 2
left_child=9 2 3 4 -2 -5 7 13 -9 10 11 21 -13 -3 15 -8 -16 22 20 -20 -19 -1 23 -11 -24
right_child=1 6 -4 5 -6 -7 14 8 -10 17 -12 12 -14 -15 16 -17 -18 18 19 -21 -22 -23 24 -25 -26
leaf_value=0.0077777558222427608 0.17605000181991687 0.037886963986660166 1.3663270587948235 0.17261466866350611 3.2111251309514048 -0.81507374861883752 0.056906657406912781 0.60254864933474961 -0.06181607898543863 -0.0012235666530782277 4.0689538972718378 0.080098728678677941 0.20808038709784402 -0.14647656009502469 0.16286742584197783 -0.55846098106866282 0.0022103830874544397 1.1411564809083938 0.022282057580467057 -0.003425489971644353 0.11281406436213837 -0.0082421853677536322 -0.0022829718940888611 0.027283793230231654 -0.0034460618825132129
leaf_weight=25119 427 694 33 219 21 63 281 302 425 1521451 21 5050 676 248 288 111 7023 20 42229 164577 4243 27129 244802 52972 244369
leaf_count=25119 427 694 33 219 21 63 281 302 425 1521451 21 5050 676 248 288 111 7023 20 42229 164577 4243 27129 244802 52972 244369
internal_value=0 0.0331766 0.228242 0.176794 0.318319 -0.0480391 0.0172958 0.0872769 0.214165 -0.000144147 0.0103867 0.00891655 0.095208 -0.0106504 0.00213306 -0.117343 0.0085391 -0.000412642 0.00416302 0.00182389 0.117639 -0.000540361 -0.000880651 -0.000264427 -0.002864
internal_weight=0 10135 763 730 448 282 9372 1669 727 2.33266e+06 57995 57974 5726 942 7703 392 7311 2.27466e+06 211069 206806 4263 52248 2.06359e+06 1.57442e+06 489171
internal_count=2342793 10135 763 730 448 282 9372 1669 727 2332658 57995 57974 5726 942 7703 392 7311 2274663 211069 206806 4263 52248 2063594 1574423 489171
is_linear=0
shrinkage=0.1


Tree=35
num_leaves=23
num_cat=0
split_feature=7 0 3 5 4 1 1 3 3 3 7 7 7 7 3 7 3 3 7 3 2 3
split_gain=1067.84 4532.7 4910.95 11026.8 10634.6 3818.66 17679.7 9407.91 609.769 571.859 31763.8 8704.87 2223.21 504.408 1451.1 494.278 375.737 306.222 579.172 220.809 80.2683 33.6371
threshold=6.4729712211150856 4.5000000000000009 0.21399919840580109 6.5000000000000009 9.5000000000000018 12.500000000000002 11.000000000000002 0.40725554051330221 0.58496917546014326 -0.4328176512643172 0.14683117423459149 -0.17868873876940741 -0.10975542040192364 1.1722070324210523 0.92679295863965305 1.991698952003887 -0.51141396652460169 1.2213923824088593 0.20019221212203847 2.3791822422931506 6592.5000000000009 1.7424232897148937
decision_type=2 2 2 2 2 2 2 2 2 2 2 2 2 2 2 2 2 2 2 2 2 2
left_child=9 8 3 -3 -5 6 -4 -7 -2 10 11 16 -13 17 15 -15 -1 18 -11 -16 -10 -19
right_child=1 2 5 4 -6 7 -8 -9 20 13 -12 12 -14 14 19 -17 -18 21 -20 -21 -22 -23
leaf_value=0.0098228763044827788 -1.1964631148747036 2.2951673716306686 -0.21779745998696534 1.4735552528621378 -0.69618314579129226 -1.7308653627672503 1.1094038422386931 0.024022260458058206 -0.39552248150110247 -0.00096774060216423007 2.9761292295737398 0.095779027052963775 0.3593559011370836 0.035269785984488912 0.016970887604125674 0.0996524814761824 -0.0034355811787272796 -0.0077605162553536257 0.0053994895485211863 -0.0027181650934860577 -0.66199307900208693 -0.014406139892148168
leaf_weight=26790 21 32 243 37 58 31 171 2099 20 1981075 36 7641 334 2876 8021 2037 105740 19322 153961 19650 26 12572
leaf_count=26790 21 32 243 37 58 31 171 2099 20 1981075 36 7641 334 2876 8021 2037 105740 19322 153961 19650 26 12572
internal_value=0 0.062414 0.082792 0.689671 0.148873 0.0524957 0.330394 -0.00151836 -0.74997 -7.3028e-05 0.00611131 0.00535034 0.106818 -0.000468185 0.0118813 0.0619638 -0.000755478 -0.000653883 -0.000508589 0.00298911 -0.546136 -0.0103801
internal_weight=0 2738 2671 127 95 2544 414 2130 67 2.34006e+06 140541 140505 7975 2.19951e+06 32584 4913 132530 2.16693e+06 2.13504e+06 27671 46 31894
internal_count=2342793 2738 2671 127 95 2544 414 2130 67 2340055 140541 140505 7975 2199514 32584 4913 132530 2166930 2135036 27671 46 31894
is_linear=0
shrinkage=0.1


Tree=36
num_leaves=24
num_cat=0
split_feature=7 0 3 3 2 2 2 4 0 3 3 7 7 7 7 3 3 3 7 3 7 2 3
split_gain=864.948 3671.49 3990.33 9626.75 27087.7 6197.06 1918.74 7185.96 1637.12 493.913 463.754 43245 7134.71 2377.35 424.664 2035.78 535.967 401.405 318.107 241.264 3050.98 65.0173 57.5471
threshold=6.4729712211150856 4.5000000000000009 0.38366816959975092 0.17923794831277898 7817.5000000000009 7676.5000000000009 4097.5000000000009 18.500000000000004 8.5000000000000018 0.58496917546014326 -0.45150073780473837 0.14683117423459149 -0.18532590246051497 -0.16265932913448636 0.61185987255302698 0.030699450829523654 -0.19697371266483218 2.1422789683452859 -0.20375172378046372 0.4687124272990571 0.094035394129049418 6592.5000000000009 1.2213923824088593
decision_type=2 2 2 2 2 2 2 2 2 2 2 2 2 2 2 2 2 2 2 2 2 2 2
left_child=10 9 3 5 -5 -3 7 -4 -8 -2 11 12 18 -14 19 16 -16 -17 -1 20 -12 -11 -21
right_child=1 2 6 4 -6 -7 8 -9 -10 21 14 -13 13 -15 15 17 -18 -19 -20 22 -22 -23 -24
leaf_value=-0.020432539655682674 -1.0768167949858165 0.39690122962223762 0.59026668753315503 -0.61849143624305736 4.0366338024139408 -1.4585802956060929 -0.464079660096684 -0.14982925149153417 0.015341022087285331 -0.35597023397684097 -0.00093736773707012156 4.4390914062884717 0.065225536943598603 0.19377010094414548 0.19434330326216839 0.010904290670401898 0.073798185728025573 -0.0053229047565292228 -0.00012301890910429802 -0.0033053764744891338 0.024135991068607955 -0.59579377632874708 -0.0086008999106825575
